entity,time,y,x
1,1,1.8256261075312445,1.5303728114035209
1,2,3.1005137803875975,-0.4760145310793592
1,3,-0.3202395240978566,0.5420378859250166
1,4,-0.2770135931244173,0.16663849536182887
1,5,0.24488862837978026,0.08385271304709754
1,6,0.04043907450686346,-1.5123120278744815
1,7,1.8187299751067918,0.45211963505845065
1,8,4.372122937384168,0.04344491259397988
1,9,3.5186134466083585,0.8440668656747572
1,10,3.502034284240284,0.8777738491057697
1,11,5.372131770968022,2.296136740400089
1,12,3.461952859775157,-0.20772908000181145
1,13,3.739702964854988,-2.193853911207477
1,14,2.8252621813594656,-0.405473153742828
1,15,-0.02658734911748306,-2.8351857410725714
2,1,-4.428877279977017,1.0937709733760685
2,2,-3.254022689095275,1.8604094554035038
2,3,-5.776697474924736,-0.5258239169983643
2,4,-5.25714150467248,-0.8290557093979151
2,5,-6.371475746212408,0.45222442556835746
2,6,-6.609930505321115,0.041317775927102424
2,7,-5.041952123637768,-0.18978323819755222
2,8,-4.349662555209068,-2.085043569890569
2,9,-5.222397762528242,-0.029434054082362437
2,10,-4.456030069786543,0.5081039630903522
2,11,-3.313558408091329,0.2865302366217149
2,12,-5.944096371063612,-2.0722951211659977
2,13,-4.274444146881134,0.7029734300321594
2,14,-4.128507311099955,1.229764397031522
2,15,-4.412708458714198,-0.7966309396901089
3,1,2.9227004866936506,0.3732521005600633
3,2,0.7063230159172167,0.7993707309697967
3,3,-0.40411772423326486,-1.271564473594018
3,4,0.20512983168616372,-1.1890132854383981
3,5,0.5929827091425275,-1.8549788031141208
3,6,1.5122728608123954,-1.7081002416959232
3,7,1.6696793255930151,0.06902349098933395
3,8,1.126831021273698,1.0106262831211825
3,9,1.3930150439776612,-2.444871207187961
3,10,1.8850946486130709,1.3373487134332325
3,11,1.143524453605573,-0.3203499734101711
3,12,0.31523228964045147,-1.2512790973301608
3,13,-0.254847688256428,-0.48470981324351947
3,14,0.6973456764000314,-1.1784506551572214
3,15,-1.5331350336284744,-1.3939649385293982
4,1,0.6190740060203419,0.19245135303987182
4,2,2.1294307164347233,1.1316226571877985
4,3,3.3584954130444427,0.16017938953939673
4,4,1.389973321297766,-0.8104713941239224
4,5,1.5503730393734592,0.13104853446810277
4,6,1.1014154853208158,-0.4121780034783393
4,7,0.6320171083065658,0.805501988301285
4,8,0.11179911485383243,1.0968253865061324
4,9,2.1665483764612965,0.5051448926721235
4,10,0.9716365189841172,-2.2507490549209868
4,11,0.6579550643433051,-0.7200849626839858
4,12,1.4033362062236758,0.39612861402784955
4,13,1.2711843451772595,-0.054236268891482343
4,14,2.7342064863226994,1.2874538267084197
4,15,0.5465416594463188,-0.496802046794087
5,1,2.1497668333934463,0.9189151934266774
5,2,1.295855335994895,-0.7330140475124087
5,3,3.1098871668420527,-1.146716480820728
5,4,5.06264443479858,1.3910219559033588
5,5,3.248289378878999,-1.2954637426637194
5,6,0.08300377818420435,0.5347762942656396
5,7,-0.21163463805612928,0.18016238102050638
5,8,2.37080464617285,0.7823702010945541
5,9,3.464085549130127,0.7216718376404452
5,10,0.9930927449726968,-1.9715739788939182
5,11,0.44337123886263063,-0.13719802823163346
5,12,-0.09658007502849142,-1.8999522720502602
5,13,-0.27801316012536376,-0.7070540028366356
5,14,0.5376148847021339,-1.0073439689355312
5,15,-0.7008024216871799,-1.080365354860548
6,1,6.465469067284772,0.07535529099096311
6,2,7.997955986862916,1.743471635544256
6,3,6.435829783055072,-0.2561809829439253
6,4,6.237197771980725,-1.8584728911493678
6,5,6.195286906939422,0.4824224171488327
6,6,6.935981025537368,-0.933084965906687
6,7,6.187733496012283,-0.49470871978862957
6,8,7.395523456946515,-0.08250956775516192
6,9,7.543559225109252,-0.15332675036920562
6,10,6.393346547064107,1.57420454392558
6,11,6.889047507682512,0.13886313100526898
6,12,6.302928276669666,1.0332171862287538
6,13,5.997093712659404,-0.7277027062841901
6,14,5.836643329313027,0.5730793733625464
6,15,6.075766125507244,-0.5151079869837346
7,1,3.9860234730194257,1.194880438979955
7,2,3.3144209803374105,-0.5656955668642945
7,3,3.225855091396706,-1.1762103308618024
7,4,3.7527919861121166,0.9520907871794062
7,5,3.134895358124778,-0.3369860848029493
7,6,3.5424442204700286,1.1501756042336415
7,7,3.177291605396388,0.012722220162433892
7,8,2.3683598858821773,-0.1333156792089073
7,9,1.4507767333481318,-0.3377702545653975
7,10,2.7212615176811674,-0.3312129687035145
7,11,1.842841838680637,-0.2983336063003082
7,12,1.623500987418075,-0.36809417212686507
7,13,1.604211031605785,0.8407881935741467
7,14,2.3047352649911836,-0.947314597749287
7,15,2.8144082619202258,1.6848677893402413
8,1,2.7758383628289884,-0.791997855424245
8,2,3.7242587574345607,0.020723632452151388
8,3,5.908080461369347,0.6438883789370982
8,4,3.6150384012681593,-0.28351622827518397
8,5,2.89524997468219,-1.4617746782972973
8,6,1.0541300040568855,-1.1949590069182277
8,7,3.4513497821394274,-0.1171699596632066
8,8,3.691789464863479,0.12623206710139848
8,9,4.720487756135459,1.15105777321711
8,10,3.209319929489337,0.34581744585617963
8,11,3.718362625666023,-1.1760112961506453
8,12,4.792308145308163,0.4921221764788038
8,13,5.600822032341542,-0.3994482652309996
8,14,6.019499320027,-1.2295271814773159
8,15,5.1820091687375385,0.34618470132278506
9,1,0.6155049927072621,-1.3767441713789257
9,2,0.6709622062899722,-0.6483071307740474
9,3,0.9686301367332945,1.4364155484434484
9,4,-0.05051678884137689,1.535949972926831
9,5,2.5227969229828413,0.40615239073038667
9,6,0.6315959402291369,-0.4965444055720736
9,7,0.5324497771405645,0.8569586323736037
9,8,0.7591580604998031,1.802783629818553
9,9,-0.26735829180611137,-0.8468740708576237
9,10,-0.5345995772091705,-1.0634780168823263
9,11,0.07078302059740856,0.24444405249656773
9,12,-1.5909232534935076,-1.3553570294327757
9,13,-1.39829751176457,0.42089537721324494
9,14,-0.25996719374705585,0.06828393071987066
9,15,-0.09368386418465202,0.942890704104015
10,1,3.227098704269122,-1.4198023620089806
10,2,3.4787191606572128,1.0926849236207241
10,3,2.5590704030647546,0.22849725726338485
10,4,3.2702702182487093,-1.0888597538391427
10,5,4.051201516015624,-0.7924058803671749
10,6,5.01943676588145,-0.9584607534624877
10,7,3.3686056147563823,0.059222386169860565
10,8,2.3526962879591586,-0.636806783798916
10,9,3.0263709554609104,-1.0496738607286842
10,10,3.329524740369653,-1.2306559001916246
10,11,4.0965449815684885,-0.28415761199549266
10,12,4.398775983563437,-1.7111192953011478
10,13,3.1395236310854093,-0.963990079698021
10,14,4.107805622522569,-0.22316571716960681
10,15,4.548417151851475,0.22754210760139534
11,1,-7.14638154587554,0.306123782299801
11,2,-6.82120904751513,0.14205317958083946
11,3,-6.5177245230089325,-1.365481980641215
11,4,-7.841970400797876,-1.269831095966037
11,5,-6.741115095030617,1.071487372951796
11,6,-6.147615720128069,-1.7408432062077208
11,7,-6.740026579022023,-1.3438846743805426
11,8,-7.0568671008305,1.3923054449510066
11,9,-6.425341098149716,-0.8704590048393391
11,10,-4.971040761759933,0.9606735697313588
11,11,-4.304534053313986,1.933136110860094
11,12,-4.369125119430674,1.3802422498806024
11,13,-4.093497995556321,0.40909859482977906
11,14,-4.3453231322310115,0.24341808798352207
11,15,-2.578792925242844,0.3973928819910525
12,1,0.0006342320875067919,1.734216115671512
12,2,1.703035018204754,1.3318565553453268
12,3,0.8323834276208082,-0.10621732164631621
12,4,1.091713857663424,-1.0392241372424251
12,5,1.3457807213254733,-0.9402972718659902
12,6,-2.129310160789097,-1.808576054332667
12,7,-0.6470669776211624,-1.9445113333638286
12,8,-1.9207145891788184,-1.929705954332517
12,9,-1.3391039595311829,-0.36169039071001735
12,10,-0.9958168212772468,-1.4563147846378024
12,11,-1.5386063907281242,-0.2161075781722817
12,12,-0.4122701721776605,-0.13929620522278272
12,13,-1.578774447561469,1.8691572575764555
12,14,-1.8543949445548895,-0.38145459626995976
12,15,0.05407814215129414,0.7601899186869512
13,1,3.8116099452010586,1.3148999944870858
13,2,4.628450270737362,1.2573434434792696
13,3,3.575221364225505,1.2206365497431693
13,4,4.290809248682918,-3.045577195640706
13,5,5.0318324460133494,-0.5068948292384498
13,6,5.229291904997707,-0.34588187250176994
13,7,4.698468491336654,-1.1324867757954833
13,8,5.94975801700775,0.1580123028129197
13,9,7.063263742990058,0.8655599209776189
13,10,6.210662973657636,0.7504043137071867
13,11,5.797641432505517,0.6847097870401128
13,12,8.133405551347963,1.8311404233425501
13,13,7.192213310569624,-0.9437362802709967
13,14,8.023645610029279,0.10523654153542766
13,15,9.24192618177399,0.383483245850929
14,1,0.26740073931092084,-0.7349948300490996
14,2,-0.08291076748505122,1.0598568779710253
14,3,0.507090344337217,1.7418777583830352
14,4,0.7423996391104649,1.3809330035259806
14,5,0.9158166060311206,1.470237184847392
14,6,1.9263936748607051,1.1883908567909556
14,7,2.7288567144246203,0.6479244964994534
14,8,2.5999990992515225,-0.09935730046951681
14,9,2.5555717732408736,-0.1055970500313225
14,10,2.755968842629195,0.5518709498532024
14,11,3.0616726188067407,1.6007081985845892
14,12,2.8098931061340817,0.4354134726010168
14,13,2.6107057146295904,0.9415548155973297
14,14,1.0071274343317747,0.5751955326234904
14,15,0.00499676823928602,-0.36532818320563404
15,1,-1.5021692434696372,1.0234596561803828
15,2,-2.8510257311847687,-1.3370183932197406
15,3,-3.610353979177349,1.621869431851812
15,4,-5.045282336483706,-0.2767669959442117
15,5,-4.061626839594287,0.2971652063875965
15,6,-4.550559572525244,-1.6990711054918555
15,7,-3.4338501054640385,0.694682852070763
15,8,-3.422852537385621,0.6177718291565205
15,9,-2.144049239495926,1.5652280623471735
15,10,-2.389361382931136,-2.1817239094804743
15,11,-2.444284243686102,-1.021533240316777
15,12,-2.5778347919539666,-0.49285231770252436
15,13,-2.279685810766721,-0.8290781126050291
15,14,-5.015986015526327,-0.7778052816104128
15,15,-3.9104928826450918,1.7541199167269337
16,1,-5.132532712034827,-1.1962558654364726
16,2,-6.94655091457537,0.992913645783844
16,3,-6.31214898545072,-0.5906711590921645
16,4,-4.692945440644541,0.9611993466273946
16,5,-2.5191213370603878,0.621749339509785
16,6,-4.528907359165294,-0.8545163638673533
16,7,-3.3042441981161517,-0.8791166961553806
16,8,-4.429098435953728,-1.5913990702773642
16,9,-6.242782557047933,-0.7391525144883458
16,10,-4.7943066314929546,1.4944754141485805
16,11,-3.9388839407003697,-0.6995787694741838
16,12,-3.3080838180271135,0.040822318516257554
16,13,-3.9310645782691216,0.35895190640858005
16,14,-4.972080228926753,-0.4959578233995663
16,15,-6.459861998821355,0.546999418272386
17,1,-6.066937141139855,1.46531343042525
17,2,-8.10612808812565,0.6194849123855823
17,3,-9.039477364021847,-1.554539840708379
17,4,-8.157979247624077,-1.523399645589532
17,5,-6.358599956736671,-0.2915299741061933
17,6,-7.0175832980592565,0.5192324302371016
17,7,-6.89783570705219,0.5514171328843874
17,8,-6.893807583693339,0.8919967741741827
17,9,-9.294615058173614,-0.7070541451043787
17,10,-9.610679294290808,-2.601953052326228
17,11,-9.24654751478744,0.16776913301371715
17,12,-9.397739222320208,-1.5974203885873521
17,13,-8.015527681719178,-1.494912691511115
17,14,-8.702863780477939,0.4274530638361327
17,15,-9.703735046802695,0.15946447906901934
18,1,0.9634933527744542,-1.5048433244199886
18,2,1.0502498233924502,1.0051704256964147
18,3,-0.2013324954591016,1.4712984462828533
18,4,0.3780899236829413,0.7658922636300481
18,5,-1.1107792657507183,-1.2301937035830341
18,6,-0.3944569955295797,0.36724763173507335
18,7,-0.37196815925880317,-0.19482632124674762
18,8,-0.22108187281035832,-0.04985531894916237
18,9,0.015419393363237985,-0.0914158672994371
18,10,1.992567182844135,0.20358911076247374
18,11,0.846802895319192,-1.843080658618847
18,12,2.118708582775127,0.4085022324948666
18,13,2.3684987230642225,-0.10006513129805106
18,14,0.6600816229284271,-1.6476200058272774
18,15,0.7404123991775093,-0.014462576070759887
19,1,-7.84957552622587,1.7921746039342261
19,2,-7.2798991156472,0.03341609883931154
19,3,-7.133567352674203,0.033341681352993764
19,4,-6.244742094359161,0.6649166081354148
19,5,-7.173428007252416,0.6304745309359174
19,6,-7.081512476908488,0.7023406433260037
19,7,-8.10869994821949,-0.07382816714525692
19,8,-9.634090554976547,0.2158216806038041
19,9,-8.681636607013807,-0.18293769469473498
19,10,-8.145237349930094,-0.16724544496572397
19,11,-7.794750341777658,0.18491043555142528
19,12,-7.63513723235197,-1.2765980562246522
19,13,-7.7205561924007755,-1.9847173621510072
19,14,-7.12104676419546,-0.9785277450254042
19,15,-7.9151546497243155,-0.4213155747820733
20,1,0.2686091998452555,0.1542670806910149
20,2,0.4175283216582931,0.7204287507055331
20,3,-1.7933403350133408,1.5498945797170658
20,4,-1.352569500904452,0.38413463094002026
20,5,-2.5415975343545534,-0.9588299815501674
20,6,-1.814770679195844,1.734355071007698
20,7,-0.6352912831722813,0.9582387968646838
20,8,-2.589972680711252,-3.2253864759884063
20,9,-1.9895762965969734,-0.29616905813048805
20,10,-3.151188596520482,0.08452415731984732
20,11,-1.7918374934279795,1.3352492228181534
20,12,0.07526815235897222,0.2198419359815089
20,13,0.607534286087761,0.2635808944635766
20,14,-2.0779408193183047,-0.12133422447057401
20,15,-1.220603355436852,0.43503935855074066
21,1,2.0283833183818762,-0.8696069725398744
21,2,1.4582044685104045,0.2292187254107347
21,3,3.353500324598085,1.6388076202016326
21,4,3.1885502248379876,-0.202368264876043
21,5,2.932121196365404,-0.5790330809749246
21,6,1.0073584570321454,0.4541140199293538
21,7,0.2729780639115946,0.764132006644659
21,8,0.009445957068298538,0.3438310575949187
21,9,0.3679980134966732,-0.8650521438495402
21,10,1.065018014266255,-0.9151263105412402
21,11,2.1938316203409896,-1.2777605429455732
21,12,1.485252807002856,1.3996513013400698
21,13,2.7803262517045697,0.8218051769658246
21,14,2.036287416038196,0.6424754539597096
21,15,2.270322425964639,1.6017963757387048
22,1,-1.3795085528579207,0.38836328130844133
22,2,-3.2275916339411843,-0.3222234565782111
22,3,-3.094416615535708,-0.5795623199016379
22,4,-1.5739961647114975,0.9359429384459708
22,5,-1.1051881038043225,-0.7890375240259813
22,6,-1.4411735908873344,1.5180037458318976
22,7,-1.1420549088962835,1.7575517112879504
22,8,-0.5196784552629037,-0.4035815380067127
22,9,-1.8003001995926842,-0.5181384258869924
22,10,-0.33069658035251304,0.7912748262191275
22,11,-0.9986691598907085,-0.12013210397562105
22,12,-1.5443315569988654,-0.5754557267995354
22,13,-3.3990317778351153,0.37033831007216395
22,14,-2.7451739859332807,0.6848082848177214
22,15,-2.9386065575871805,-2.132519543078885
23,1,5.761929029223883,-1.693677962369366
23,2,7.2439556096753766,1.7016584639915044
23,3,5.604505372532685,-0.0009695132051754244
23,4,6.858566077840239,1.6706262173188033
23,5,5.440861749231751,-0.6624582448024797
23,6,6.482251761148312,0.5174212376275227
23,7,6.848374241997039,-0.4742679836199497
23,8,6.07126576391154,-0.650754461849762
23,9,5.446060952083354,-0.9009895812525811
23,10,5.496702649898093,1.952683736499624
23,11,5.813777766816435,-0.987044066499029
23,12,4.0941624819695,-0.7788402336370727
23,13,3.0478195556543226,-0.28904409428985894
23,14,4.898921868452701,1.1553618156876064
23,15,4.718301330321582,-0.2675854613462767
24,1,-0.6115443733572845,0.9768092141262628
24,2,-1.2530185116632777,0.5569939743358971
24,3,-0.6918626041284384,0.8549983449576611
24,4,-1.1112814352689577,-0.058174713011071646
24,5,-2.437176237201723,0.007967346712205442
24,6,-2.848707620493018,0.08368685884761556
24,7,-2.667868007962975,-0.7689145650344424
24,8,-2.9121212226032887,-0.09971255359724192
24,9,-3.3716913783057523,0.17397548222777348
24,10,-2.392974941336107,0.053942566751753025
24,11,-2.719782847305271,-0.8173378773251694
24,12,-2.3026471750302666,2.0049163838307185
24,13,-2.7687706544249266,-1.1557265742533762
24,14,-3.44436073158521,-0.955283556490343
24,15,-3.5038859005613117,-0.08920322239073143
25,1,5.316296446340161,-1.3940118993793713
25,2,5.491606485636015,-2.46237726410651
25,3,4.968626843231673,1.4405130604921097
25,4,4.391243920895733,0.1277477649107692
25,5,4.167041598132811,-1.7041593469119036
25,6,7.026863546890617,2.125876238697896
25,7,7.455092969818184,-0.5562510014395287
25,8,5.607598198192539,0.08925364151072177
25,9,4.061697558501555,-1.2612784499642071
25,10,4.126940894330446,1.0347965803387713
25,11,3.6940937704473678,0.5464028474914061
25,12,4.9863385841195695,1.3667298622259128
25,13,6.289281398718964,0.32412817746092815
25,14,4.422047329968163,-0.5380866873005469
25,15,3.5938295840007037,-1.260606743769106
26,1,-1.0235307733145054,0.541609674727727
26,2,-0.7605300883707512,-0.19170271427751387
26,3,-1.1820555869122864,-0.2847384616327839
26,4,-1.583684524672317,1.017706575321245
26,5,-0.3245931329036984,0.48954453200259535
26,6,0.15547223770060464,0.14342153119748552
26,7,0.2849665416615377,-0.6586026789409815
26,8,-1.7451927627703654,0.09397488942874871
26,9,-0.8841609524576901,0.05980290286959733
26,10,-1.1917622044618332,-0.07460681161031388
26,11,-1.2254283347036752,0.44642959155740464
26,12,-0.26269378835959334,1.642503385193966
26,13,-1.9097927974533377,0.17339201245551433
26,14,-1.9565268822271806,-0.7493456948330224
26,15,-1.0484087199658845,0.6060048379602879
27,1,2.322612058044064,0.7437086186568211
27,2,3.04146752819475,0.01525863465745046
27,3,1.8774728956796256,-0.21221910712377753
27,4,2.5965535418798416,-0.1176208233201904
27,5,2.60529821017179,3.3505308993065857
27,6,2.9100641218970247,-0.5590840515479872
27,7,2.659720111205739,1.3872831003685868
27,8,2.676783334307178,0.009664400230581746
27,9,3.28285872831738,-0.42345570639718755
27,10,3.9499982451130897,-0.13698352526119556
27,11,2.3899372033851827,0.5189969229791498
27,12,1.8647224233007136,1.3596824147224496
27,13,0.015700101183334647,0.10115492437637884
27,14,-0.0225240710599674,-0.4558317149025935
27,15,-0.22245378923974563,-1.1946860047619756
28,1,1.8661683151160806,0.16819169942009293
28,2,1.3540825291742602,0.7105562577254486
28,3,1.7944006560122345,-0.9418267507762748
28,4,2.1000402099016977,1.1703362242741864
28,5,5.796189970445985,0.41510841105746127
28,6,4.762766721935181,0.005400023007995071
28,7,3.592093398502862,0.8713192744451523
28,8,1.9968931107057373,-0.09649415150665787
28,9,0.5907550487073743,-0.8944488571914476
28,10,-0.7483837561466141,-0.8050707014804184
28,11,-1.1593639727065328,-0.5947024091175721
28,12,-0.0021778346234588852,-0.010390329027439154
28,13,0.37320636040968563,0.1782610470173728
28,14,0.2717334696446729,-0.7679428979698132
28,15,1.9904049653650187,0.41420471377524704
29,1,-1.5717172037964797,-0.6665926966914908
29,2,-0.3433079730511092,1.0571672152621645
29,3,-0.269609471339699,0.5516699311418115
29,4,-0.07159260299448156,-0.7823840648789238
29,5,1.9662799835378224,2.0084314541158834
29,6,0.11062283132545003,-1.6789047590400068
29,7,-0.17591699682873832,-0.17080383523764273
29,8,-0.13722051105914412,0.7876051663413762
29,9,-0.6667539738908355,-1.1946198473140963
29,10,0.26693143185467605,-2.2927446900588992
29,11,1.1634182904602643,-1.8996343312656152
29,12,0.48010940251204726,-0.7342511751434276
29,13,0.2717556106390467,-1.015720528589535
29,14,0.009260777787332808,-1.5430507868726206
29,15,-1.3226851921599165,-0.30910333999206674
30,1,1.374234002511887,1.1660620431725928
30,2,1.2537433760466845,0.07425676297663776
30,3,-0.4809314831454389,-0.8227564534873251
30,4,0.9655603116067042,1.4545352664520206
30,5,-1.634011461999357,-0.003663580275389776
30,6,0.22938553903634706,-0.4338458470571237
30,7,-1.838996283840412,-1.4483055370627314
30,8,-1.361235453107158,-0.2849185740164564
30,9,-0.511613454872031,-0.4590605937437953
30,10,-0.08182884170813348,0.5406802543016289
30,11,1.2415877624428933,1.2160788429740599
30,12,1.8241300238415707,-0.8400002633781852
30,13,1.8415697963689655,1.501021841157166
30,14,-1.92435623642169,-0.6517030301579964
30,15,-2.551672810890972,-1.6451710286778645
31,1,-2.1337493601723736,0.04319034698758412
31,2,-1.9890576511348168,0.8336670541208122
31,3,-4.614319023072891,-1.6822375151704647
31,4,-3.6144258631276585,-0.9327404592722659
31,5,-5.431744680319034,-0.7850622708304666
31,6,-4.720310432964743,-1.1343794974835661
31,7,-3.191399076650227,-0.6419069928757335
31,8,-3.2708785615869336,-0.9510025210254279
31,9,-3.918178259182875,0.2822930071981005
31,10,-2.4159126513343785,1.6008082761083129
31,11,-3.913890089073698,-1.3406240621016914
31,12,-2.4066065082332857,0.08690166186613348
31,13,-3.8334761098443586,-2.031100330979884
31,14,-2.3517898564076125,-2.0228698465595034
31,15,-2.3715575918547698,-0.7513538972516147
32,1,-3.751552844886288,-1.270022635793965
32,2,-2.8634130110542886,-0.8098386192732009
32,3,-3.5943306220890348,1.1493193546387368
32,4,-3.041822067708168,-0.32786490116054073
32,5,-2.504069293481252,-0.4441515314408502
32,6,-3.4400317022584845,-0.5488185060801449
32,7,-2.6943390970911443,-0.8967359151141394
32,8,-2.584282713804651,-0.3847236477395328
32,9,-1.4713301406914494,1.2515267812820505
32,10,-2.9715569471691117,-0.4498940874139862
32,11,-2.2536382824558707,-0.4235399554774519
32,12,-2.5564839326954214,-0.6366595471862501
32,13,-1.9066404407346356,-1.2280092628081638
32,14,-2.9402188396214206,-1.3064532660464356
32,15,-2.267102456447647,0.956033025751348
33,1,3.3715631456455397,-0.09822133155042798
33,2,2.946145336580889,-0.2592391935781905
33,3,3.8794566950872906,-0.8092329979807673
33,4,3.6633861056302246,-1.073883461010959
33,5,2.928351830455421,1.1487403430473222
33,6,4.71725233614806,0.617902955104949
33,7,5.092290795057045,-0.16220163153479084
33,8,4.086771175496543,0.3707198523675749
33,9,5.96431498436842,-0.19399418812564143
33,10,3.6980111571959604,0.15076503061831958
33,11,3.4927177619580396,-2.280946246993241
33,12,5.749688494261978,1.1292159425205741
33,13,5.373230762322723,0.22832781007860062
33,14,4.241826785084228,1.6302716049515176
33,15,4.600182608687053,0.5597005899139995
34,1,-0.0991182274717689,0.8213494801360958
34,2,0.028983390804495912,-0.38411351687364004
34,3,1.5787367815601754,3.9376121777052617
34,4,0.884702486983888,0.535751381120068
34,5,0.45466745719303214,-0.439632982853546
34,6,2.498577472345872,-1.4443280155977216
34,7,1.605617383881941,-0.9021624261059559
34,8,0.17272587908396786,-0.539082431056916
34,9,0.7996095059931245,-0.39139778540343106
34,10,1.8714329005634935,-0.11278276910624176
34,11,0.7973854073139864,-0.6765746604049657
34,12,1.6786608893072783,1.1216571162507225
34,13,1.2311523749293425,0.38939638375341995
34,14,0.4167697293448075,-0.9528913325984805
34,15,0.3599078227431346,0.40359889489247586
35,1,6.546566535922183,1.0349302840949186
35,2,5.521708288255507,0.3510366976779265
35,3,5.742840677435883,1.0055345034723355
35,4,3.012574135124728,-1.6227950513583844
35,5,2.3342546388005614,-0.49361264513773495
35,6,4.157817759476846,0.41151682008785817
35,7,4.138482084832349,0.5426390956997248
35,8,3.6680139439840094,-0.15259331140939006
35,9,2.887710651201822,0.47975171086999996
35,10,3.7413884274730678,0.5343921115841679
35,11,2.7514004754463093,0.7804968846570158
35,12,3.191859019735741,-1.1716982592756315
35,13,3.6014372105759116,-0.2383232987046288
35,14,4.178890695112779,-1.2974418417618196
35,15,3.3517777431927884,1.54265570577912
36,1,-0.1942862205706602,1.1074687800189162
36,2,-0.3060691255877275,-1.0888469034449357
36,3,-1.6968674446336733,0.5973194003623769
36,4,-0.3182632114302679,-1.224611602403497
36,5,0.41701617527472695,-1.2035196945170499
36,6,-0.1567125970135984,0.5193384160359238
36,7,0.632655282934545,0.047695058343177006
36,8,0.5510388193232583,-0.4226377047055683
36,9,-0.17718398959674042,-0.0603634829852858
36,10,0.6139684172521398,-0.28449153996118837
36,11,0.6254876282313857,-1.7703534671313899
36,12,0.2684139881658064,0.7630237896914903
36,13,0.4985354194312697,-0.6889075398745668
36,14,-0.03423634594505787,1.6865464187676502
36,15,0.10816254056150443,0.25498508415452703
37,1,-2.119672890967683,-0.43071915181021886
37,2,-4.317788814389585,-1.7542706479254078
37,3,-2.9128870486721925,-0.623012952656797
37,4,-2.0431918627026127,0.8829550604386222
37,5,-3.55231337277983,0.48383566304925274
37,6,-3.998744097659198,-0.7789522471877494
37,7,-3.0558011189069143,1.4367617061556688
37,8,-2.9388751341165134,-1.2795877795115087
37,9,-4.5721598060514745,0.5806497449401551
37,10,-5.673384010064665,-0.762023753760716
37,11,-5.72408648918897,-0.9150026797464903
37,12,-8.365433650173486,-0.8993827474107311
37,13,-6.987606417813842,1.088334320830636
37,14,-4.969950123292161,1.2490293540557147
37,15,-2.974254729577816,1.1231467212511568
38,1,-3.7600880812267046,-1.9277918818543776
38,2,-2.444988594151383,-1.320495272426238
38,3,-4.389750370068504,-0.44517109210654704
38,4,-2.734051382838877,1.1513498414691319
38,5,-3.4102302832253475,-0.8427998457631796
38,6,-2.5328856565410844,-0.006655062244961421
38,7,-2.5337578495623094,-1.3470446535253802
38,8,-4.12846765048995,-2.6074608177284935
38,9,-4.83927800497043,0.008486785556658915
38,10,-6.248335802416419,-2.0223954484528446
38,11,-4.385591879171154,0.917618577198174
38,12,-2.6079128736151116,-0.11089520437842824
38,13,-1.6823941817696229,-0.3549119573244784
38,14,-1.4972503671207222,1.1692426326458072
38,15,-2.6517047456246123,-0.8725832539049379
39,1,0.45738017995073366,-0.12343020722291029
39,2,1.0060905368874618,0.22651710654917884
39,3,2.217498490434716,1.1705191481426598
39,4,1.3602161485850561,-0.44506535574970413
39,5,-0.3299208245024885,-0.3068611507063004
39,6,0.7142902651608998,1.5853117948551358
39,7,0.19511238138356823,0.08562322566288548
39,8,1.0686421445342886,1.0806538026517423
39,9,0.5726920692863372,-1.2839666637197213
39,10,0.7495715887691253,0.3400217967077117
39,11,1.4475551281440153,-0.6923954697848718
39,12,1.3867460475461422,1.2945386167655024
39,13,0.6227481396009926,-1.081554232742808
39,14,1.2480432337023375,-0.24520732622687105
39,15,-0.015175561390374126,0.8656925523480647
40,1,2.568233949748114,0.10557192637366428
40,2,2.767279889220649,1.5600580002025017
40,3,2.349827142566925,0.8431529429842123
40,4,3.123339494021492,0.11253102485803841
40,5,3.9031952570924657,-1.088357406911968
40,6,1.7253767810051495,-0.6693721684611715
40,7,2.88828977837212,1.864074417509578
40,8,2.747641047652585,-0.709065529059129
40,9,1.1295707345965262,-2.125182324159166
40,10,1.4096269607308194,1.2748911833510614
40,11,0.9817977997528549,0.5257914810064066
40,12,0.4986331886223101,-0.4787860188972892
40,13,2.7444211984561386,0.8999050340183826
40,14,0.8968133948495693,-2.9754896126249077
40,15,1.414939597445775,-0.06233790835068571
41,1,2.41671089359874,1.2884722361228098
41,2,2.0267464609473382,-0.2151214664885551
41,3,1.428419801407733,-0.6922414914145564
41,4,1.7385364359171875,0.10455262648219221
41,5,1.7648876329128016,0.14894015985852394
41,6,1.7416759140936016,-0.7101101489995549
41,7,1.5077606400707368,-0.6066913711362693
41,8,2.68451774269886,0.9511437567972089
41,9,0.646179427212582,-0.5131955208275338
41,10,0.9259160282544285,-0.42074501456109104
41,11,-0.5300695561254019,-1.715314915142366
41,12,-1.9637756324958324,-1.819148102506472
41,13,-0.4262576807305924,2.1311979306749214
41,14,-1.3876892710685333,-0.9954901080365064
41,15,-0.490518222551905,0.2195905266722003
42,1,0.20096012897310445,-1.3152535291949254
42,2,0.2663306247560031,1.4311023222884567
42,3,1.1650912555732096,-0.1051630313915706
42,4,1.060009930112278,1.2059778127692422
42,5,0.7138159916460637,0.9269548806442796
42,6,2.926092715864671,-1.369497218463665
42,7,1.1512863335556776,0.013300204032621346
42,8,0.6173978758466953,-0.5098193028483236
42,9,-0.10945598617630531,-1.7716351737823215
42,10,0.6960923970463975,0.21054553271539483
42,11,0.8649721993130384,-0.019388445638751153
42,12,0.8357153899655689,-0.16535562883061028
42,13,1.6237852399395565,1.2425770428678207
42,14,1.1778574959461754,0.05099050844223437
42,15,2.2225123953770347,-0.8213011845641097
43,1,-0.5066147932864791,-0.08057565076716519
43,2,-2.8793624153233557,-1.152640738612545
43,3,-3.7828098333382556,-0.430314155082157
43,4,-4.184081742893707,0.55854408497634
43,5,-3.59096981299831,-1.4293868588309424
43,6,-4.102431997052291,1.416984114162716
43,7,-2.3115009952827426,-0.15933657384439634
43,8,-0.623477827133492,-0.5456936414410212
43,9,-0.7556312162369445,0.14431338323232418
43,10,-0.6302956397761513,0.016413415771837494
43,11,-1.3948165314863776,0.8885970979729128
43,12,-0.47372309164233417,0.3911599171297723
43,13,-0.43902262563646793,0.23623140206351464
43,14,-0.6940851866755052,1.0037782720230335
43,15,-0.42823255472628974,-0.3841307751535647
44,1,-0.1258862601366979,-0.6806026932333025
44,2,1.1310666537341858,0.3676694266255643
44,3,1.2434079157794906,-0.24230692269237275
44,4,0.6624966421201106,0.7137444262721461
44,5,0.14644618773297546,-0.9925159020464902
44,6,1.4696473767112432,-0.24913649076132627
44,7,1.7892811472467716,-0.3128796821218146
44,8,2.681615426563417,0.15793256869883243
44,9,3.696791865582192,1.604615810333438
44,10,4.478608315195233,0.02053811423703224
44,11,4.76206051129022,1.718284781841059
44,12,3.5323420306601196,-1.2402394168315076
44,13,2.3593014530301337,1.207478478408399
44,14,2.771797018516249,0.00011977110466176689
44,15,2.930704761357003,0.06016882277634773
45,1,1.1872507909893888,-0.7233152904622382
45,2,2.176670810005459,0.9914584189342853
45,3,3.7510057032786666,1.7917698321981674
45,4,6.1309153227279936,1.4329908385784045
45,5,3.210507694552742,0.5334440188188011
45,6,2.9011351180869713,-0.6068138779795966
45,7,3.707991079435006,0.4870275716551459
45,8,3.71123096108659,1.3461430256996825
45,9,3.8786108061508235,-0.14609680627586574
45,10,2.5625223217345727,2.0783608619919787
45,11,3.469673567899184,0.6166803494323335
45,12,2.6758277792499285,-0.19239764036536483
45,13,1.0888192581630456,-1.8767449189949104
45,14,1.7439720223601392,-0.057536770806006485
45,15,1.9501440896852675,0.3070802142720515
46,1,-0.2750891993795982,-1.2723458682749302
46,2,0.22582723412692202,-0.28228525266576027
46,3,1.8616792314020156,-1.6256860309458416
46,4,1.0693624826388706,1.5718273279376456
46,5,0.745308103089512,-0.4808775045756648
46,6,0.5841985316619492,0.23858852739666225
46,7,1.2797302712905059,-0.09654014187997256
46,8,0.3933819063663996,0.8358634779507758
46,9,0.28565969174978123,-0.15306337752985524
46,10,1.0151099432469546,-0.587262086475491
46,11,-0.07152549249556295,-0.37677403753030286
46,12,0.8514299479707251,-0.31876459192727946
46,13,1.5405502073567376,-0.377958157595631
46,14,2.235811625117281,-0.8830337198426695
46,15,2.1465518889071573,-0.4052392610852842
47,1,-8.127306247900927,-0.7454708260535231
47,2,-7.496441114389539,-0.11123846486637845
47,3,-9.260173268026467,0.5869273602736701
47,4,-9.739599015357463,-0.973089344972861
47,5,-9.83633932064766,-1.2057076115264231
47,6,-8.461052260860649,-0.6123679110676464
47,7,-8.966753227567184,-1.4314930814463696
47,8,-7.460339269525157,-0.46163483597348387
47,9,-6.958894207426658,0.008791469399468363
47,10,-6.817841139924596,0.5833907384072694
47,11,-7.297714028438273,-2.368759462816548
47,12,-7.651365968567909,0.2333043140054006
47,13,-7.20305511568657,-0.7840401176139569
47,14,-8.155395119884945,-0.72474607953314
47,15,-8.735384912112005,0.5617858475709456
48,1,-6.6675040603188975,-1.12369760964247
48,2,-6.078095252320465,-0.6497551267603329
48,3,-6.784715751139034,-1.3092614269781948
48,4,-7.729657584296896,-0.27626521638464213
48,5,-5.861036023007764,1.3150382523012232
48,6,-5.557967558391524,0.6444820944722007
48,7,-4.285376249760427,0.39362217884291706
48,8,-4.050360217326487,0.03343742139091167
48,9,-3.5681373028068384,0.9163907998499686
48,10,-2.846901698085569,-0.3610640240669181
48,11,-2.8165337731518503,0.8500553160127808
48,12,-2.372555149984704,0.8361275383396903
48,13,-1.6393971692341722,0.8268013007282181
48,14,-2.310747672658695,-0.49261667894975275
48,15,-3.102440714833096,0.6886297088015615
49,1,1.4159157158822464,-0.9354258396265707
49,2,1.5035417261425186,-0.4497907491658544
49,3,-0.32914817280265374,2.1197441913644215
49,4,-0.6631464479578448,-2.7004019630858815
49,5,0.8725004278499786,0.5569712217285709
49,6,1.065649112218647,0.2576027922280964
49,7,0.010858851135456815,-0.32151098512058884
49,8,-0.471210146521291,0.5413242342947295
49,9,0.7307437902134176,-0.027988124145258052
49,10,-2.9086561381846314,-0.5289413790818273
49,11,-3.5022259812402528,-0.7767146005901372
49,12,-1.7606529811667124,0.3871238263722571
49,13,-0.777249353184232,-1.1937122563640845
49,14,-0.2155984029015497,-0.6487993802246157
49,15,1.099428911995572,1.977496953148894
50,1,-4.13087235345497,-1.6670963815308095
50,2,-5.870188816966936,-0.12863252914006984
50,3,-3.9801976825771423,0.19492130019599088
50,4,-6.044003899131958,0.2973495141550524
50,5,-3.664717204441315,1.5120051055013193
50,6,-5.254706331938364,-0.9969221484928456
50,7,-3.6306096835716546,1.1576995634394618
50,8,-2.5076614525662984,-0.20561964027571597
50,9,-2.528348579843642,0.08172688520637078
50,10,-2.650781921524332,0.13819192385665538
50,11,-1.4353678817147106,1.9049490948818528
50,12,-3.6574389776414464,-0.9185327517248885
50,13,-7.00821803641816,-0.5756186201456106
50,14,-6.082467376491968,0.5525479873171323
50,15,-7.961119975020436,0.025394254809229255
51,1,-4.352421478046381,0.16538119974016602
51,2,-4.547117172204766,1.5276339000903303
51,3,-4.506459879096727,0.40844014469464834
51,4,-5.270942342457758,-1.648382519438693
51,5,-3.8068730427726583,-0.7796013867376426
51,6,-3.9778409961193586,0.18275365907393745
51,7,-3.206402670699833,-0.862592531688199
51,8,-3.7404801396380094,0.23341433220898777
51,9,-3.2809932104627784,1.6383641905383466
51,10,-3.9637547971602554,0.8218811473285691
51,11,-4.103403030301632,-0.9120876331604679
51,12,-4.860070001248505,-0.946259773587012
51,13,-5.417226721444093,-0.42815671180788445
51,14,-3.1484378087851663,0.007593641412274975
51,15,-3.896182347940017,0.48764554248819
52,1,-2.2976034692761775,-2.3571154949762683
52,2,-1.8412327966874928,-1.480738226299214
52,3,-1.5579364224471879,-0.21388925919533297
52,4,-1.6084954915857725,1.770568592250418
52,5,-2.1640120622461945,-1.779175477402014
52,6,-1.8384570252160448,1.080906636672008
52,7,-1.8856326659307368,0.023568469770572056
52,8,-0.7699377194865127,0.5146136458221723
52,9,-1.9386398876090887,-0.601435852818281
52,10,-2.2112487545682726,-0.18573550039650324
52,11,-2.0327579460417002,-1.0464360041744984
52,12,-2.6565106433760564,0.028174135255442073
52,13,-2.854261520814357,0.9322286875953995
52,14,-2.1615465806902647,-0.4395654884755252
52,15,-1.5385258568659919,0.16660201042114176
53,1,-0.6149617198405459,0.6019325919235393
53,2,-1.800650194197857,0.851599646868404
53,3,-3.2447676002537635,-1.2977014564074958
53,4,-1.1121619520864627,1.7274507544565736
53,5,-3.390864858958982,-1.708540010743156
53,6,-5.086470552697618,-0.9311386632160235
53,7,-5.328974778139335,-0.7115223129281515
53,8,-5.0974567553141155,-0.5814558182284322
53,9,-5.88337454576927,-1.7495759372023654
53,10,-6.636792184197794,-1.8302208607387753
53,11,-4.871737073778872,0.7935263937516052
53,12,-5.468546363498667,-0.20200036456615347
53,13,-5.1134162409263375,0.8715108603235617
53,14,-3.6122952673505133,-0.6560844126529125
53,15,-3.2792312083246893,0.6304797421448419
54,1,4.192586838027071,-0.2889616439246678
54,2,3.329458872524468,0.8238684959002188
54,3,3.7144676446749165,0.9591718423939647
54,4,6.912874147973795,-0.8825406049528187
54,5,7.2697538054902555,-0.7506260862104771
54,6,6.57501366916121,0.5712801614677905
54,7,6.192108875875853,-0.2572423187175145
54,8,6.783952265709508,-0.5360907369544415
54,9,5.889419450910742,1.236895674994317
54,10,4.508108805269763,-1.5382835199661464
54,11,4.2054819133027355,-0.6721464992565983
54,12,3.545675389794431,-0.9784240557879353
54,13,3.8523245953496073,0.6326759939682635
54,14,4.680349239691096,-0.34136484807531486
54,15,3.7220676844626635,0.8432634054039667
55,1,1.6438390119621173,0.46624604774106726
55,2,-0.4863732966256755,1.8813174805551018
55,3,2.7170866281711072,0.45405537821130554
55,4,1.9409513198825297,0.212951905986199
55,5,0.6985140013795503,0.12738752433928735
55,6,1.6780921207200115,0.3809400663304425
55,7,0.5336419439767368,0.04870105783604627
55,8,1.0497415424798697,-1.5453041175735729
55,9,1.6956741758597937,-0.22194394580842317
55,10,1.8665420708500255,-0.5292767590279984
55,11,1.276084382838792,-0.20659440944492768
55,12,2.036838090527551,-2.360881141536281
55,13,-0.036644528018161315,-0.7733939085859622
55,14,1.6828398441307302,1.3286173624236173
55,15,1.7421309472986652,-0.2362904641757692
56,1,-3.2649612508111936,1.8212142570941279
56,2,-2.1743323030234922,-0.18545994924426262
56,3,-1.0560191123013989,0.4436227350754462
56,4,-1.5151307086786738,0.017179548320608962
56,5,-1.2097574296324787,-1.0970955204710993
56,6,-2.2973048543326424,0.03503144934963715
56,7,-2.7600757850520146,0.2485106380608889
56,8,-3.4631685038358198,-0.48226103810207605
56,9,-2.5476984987679483,1.0682068802424076
56,10,-0.9170146559757175,0.24990040650055725
56,11,0.31467446271323274,-0.4701103519613145
56,12,-1.6768409540715274,0.4565958675133367
56,13,-1.5677143186892986,1.1447424266941826
56,14,-3.2548944385666116,1.0912638451321734
56,15,-2.619976466131095,0.7735207424442706
57,1,-4.187189158336632,0.4043570418837458
57,2,-6.152361012330868,-0.8337006296825563
57,3,-7.275493124055259,0.7494850965705181
57,4,-6.250489019382762,0.23002321567314798
57,5,-4.795156735321081,-1.1786814982436191
57,6,-4.2402099364362345,0.5399489472799461
57,7,-6.020088213158759,-0.6484351998765319
57,8,-4.298512360072261,1.171948161630918
57,9,-3.0467407398386177,0.9000687553993759
57,10,-4.214369196598504,-1.4484265402541516
57,11,-3.0306838093160584,-0.2541784572043523
57,12,-1.758513631472915,2.072044741615074
57,13,-2.285963783253972,0.10054762247978884
57,14,-4.2101478984819884,-1.2046653511661993
57,15,-3.8442935936549167,2.2177141356566983
58,1,2.3245948426326306,-1.1403293565554111
58,2,1.2952375945766876,-0.8956234336278117
58,3,1.9506433777579195,-0.7188346930456214
58,4,1.9798651083029166,1.2391824750743612
58,5,1.4261408603823111,-0.6280959096799489
58,6,0.35783673061030163,1.1846459821988509
58,7,0.0034565608760458444,0.22827163105389964
58,8,0.7351156702219649,0.4708417307897562
58,9,2.0592234723119343,0.5941933204772034
58,10,1.920574505745833,0.3507122319882715
58,11,2.314931814046362,0.20802646599965544
58,12,1.0027191235983905,0.33751993749825665
58,13,-1.0550153644959281,-0.7803288116221738
58,14,1.2909414362201501,0.9248057864613249
58,15,1.657467519332907,1.2734810537415013
59,1,-3.9755200878969266,-0.41976594386659655
59,2,-4.2178473338467874,-0.704143424120759
59,3,-5.951798899472466,0.8598156084032467
59,4,-4.748306804960203,0.5751494476143206
59,5,-5.651379756401753,-0.5359816577912031
59,6,-4.543673165974533,-0.9186264948772431
59,7,-4.374778970045289,1.3196210249296476
59,8,-6.539731108975092,-0.0022222881361686083
59,9,-5.88691875107853,-0.1734549630005154
59,10,-6.55814687543682,-0.8280051081755507
59,11,-7.229484557781385,-1.0867378700160875
59,12,-6.877337702789033,0.2346255096256618
59,13,-5.6364225512118065,0.7725012880557958
59,14,-6.87360025139121,0.10412378165413534
59,15,-5.1313404566370995,0.647332658963797
60,1,3.2359678668488305,3.6871798478111666
60,2,2.583859632766629,1.2058451526562561
60,3,1.9821055013223252,-0.35170725167439587
60,4,2.111483843075094,0.31040530375534126
60,5,2.2587787321951556,-0.8037241916476893
60,6,3.0662942927678256,0.36416980640292546
60,7,2.5318500954782026,-1.6326688950146724
60,8,1.2424742870317307,-0.35747134492872257
60,9,1.5098069582872369,0.06618630116100573
60,10,2.608311685326095,1.2569230097376312
60,11,1.0016197629231836,0.37172464487525353
60,12,1.9797430683185364,0.4296483088436656
60,13,0.8227102752668654,1.1627729747938218
60,14,2.2764683568142843,1.0867494060506082
60,15,1.026846811042982,0.2647739614670593
61,1,-2.276581029258531,-1.0635029039199184
61,2,-2.676351295100188,1.9776606255945288
61,3,-2.21766002699073,0.6950305367864338
61,4,-1.3558944088489528,0.44284818540875903
61,5,0.7289732603774381,1.8803055870668415
61,6,0.1665595596252676,-1.6721720885069071
61,7,1.0171266219195874,0.3361511356770131
61,8,0.9702520850255458,0.11481571536084867
61,9,-0.5623290370582212,1.6650730177601942
61,10,0.5600358194716141,0.9105129635755846
61,11,2.6196564181785336,0.08072391819926857
61,12,1.506280292672451,-0.3861662847579519
61,13,1.6729751679093428,0.9841778264222175
61,14,1.3640714352521544,0.33072299272362365
61,15,-0.3641021885569021,-2.123676211851622
62,1,-1.7492617794115408,-0.5316369891468007
62,2,-3.6286313088868356,0.510267138318826
62,3,-3.908745768082674,-0.11124961976771987
62,4,-4.890691484207679,-1.7803740892593976
62,5,-2.2871480461111657,1.6260277713880669
62,6,-1.103665722379012,0.5058591820267221
62,7,-1.870773971939663,-0.6321807652623289
62,8,-2.984069465339471,-0.2500612127987624
62,9,-2.5565335054397815,-1.0367887426348947
62,10,-5.207646438356072,0.3062895816820037
62,11,-4.439134791537306,-0.024850010572031532
62,12,-3.1777362500975936,0.5760212939324136
62,13,-3.435190558748512,-0.005793559361003106
62,14,-3.1924149419178236,2.4233356224616744
62,15,-5.388272661619667,-0.20473860410135789
63,1,2.542958245181709,-1.0949571859525102
63,2,1.7691011912639272,0.05998266612192282
63,3,1.4285020255054164,-2.035570494225579
63,4,3.776378992258242,0.12667722218458108
63,5,3.0341146360479523,-0.218468468678847
63,6,3.119960677537215,-1.402346595033386
63,7,2.9557334025509667,-1.6148545940183399
63,8,2.078976697874893,-0.9535816605510996
63,9,3.3036011706302135,-0.2099961878940684
63,10,2.9588670914502067,-0.023697571439318763
63,11,2.8788735102414673,-0.510881838603711
63,12,4.02798945545465,-1.353109234370362
63,13,5.502954950260916,0.032711232327831824
63,14,5.210124436449671,0.09642271069365785
63,15,4.731587889741412,-0.04145113111429598
64,1,3.5411619020569325,0.038330604724602986
64,2,1.2102584361616522,-0.3732509506899598
64,3,1.2271335333016955,0.32774251444510105
64,4,3.2325997980148165,0.47345366343479395
64,5,3.772442712309362,-0.743489043523594
64,6,5.295879276400117,-1.4632004992097398
64,7,5.884232931919227,0.10484086390512605
64,8,4.097787250725943,-0.682155997360199
64,9,4.464339492289728,0.6708354766398109
64,10,5.371216145063456,-0.5077783076422799
64,11,4.383316893780599,0.5535818363175131
64,12,4.065947333541933,-0.18811893506717153
64,13,2.8891930144000915,-0.3726614069882887
64,14,2.171489045690353,-1.728700696580551
64,15,0.44023910175031755,-2.1395979876151516
65,1,-0.7777526767852163,1.1731441947227244
65,2,0.891000866952567,1.3339219962770923
65,3,1.3277374418594,-0.6767337951225881
65,4,2.4664971823022874,0.9572386198321842
65,5,1.6566761083565669,1.4075976299449964
65,6,1.4954659006868882,-1.1443103822258291
65,7,0.3612565499322569,-2.4966181794507727
65,8,2.02957997830444,0.6274548416443975
65,9,0.7085266353533834,1.6251090275083264
65,10,0.5755471854061545,0.11316859565650768
65,11,1.6208286231217215,1.9288266684710125
65,12,1.558423014128039,0.19496372098556836
65,13,0.9114936461133074,-0.14446810753448544
65,14,-0.12646564121828385,0.6641266873050635
65,15,-0.4684962110818263,0.25731605150267006
66,1,1.0500702999700675,-0.24686223468354904
66,2,0.1762739125058329,0.369006731079358
66,3,0.1350839353878774,-1.3314930045303048
66,4,1.3944255447965226,0.45189610440618455
66,5,1.9895176406120016,1.090317997623743
66,6,0.1789801683868606,0.642129133986623
66,7,-1.043859078373015,-0.2874268120541146
66,8,-1.466667601994911,-0.47783838598601613
66,9,0.625010507221641,0.1572546603129774
66,10,2.911316380373006,-0.2536928080058214
66,11,1.6438140781188522,0.030671092084094798
66,12,0.2726397696480749,0.8322725178132043
66,13,-2.2224095615201014,-1.0093673104925998
66,14,-0.16054178069281533,1.2630584656668178
66,15,-0.004899346474287858,0.6359960848878125
67,1,3.1402226765543064,2.191347278900794
67,2,4.604632204053971,-0.44485067663299704
67,3,2.902030901832208,-0.005929138206988068
67,4,4.39623785567477,1.5135062326488364
67,5,3.552152832894959,-2.095107736371275
67,6,4.226801472823451,0.15766239340825547
67,7,1.789333994224887,1.1556849400784566
67,8,1.7059262103037576,0.44813712457751065
67,9,2.349618435798662,-0.7316867229203421
67,10,1.0407343889054084,0.12922105900618439
67,11,3.0731585458764368,-0.7456270685376286
67,12,2.8474712096402497,-1.3263273596640992
67,13,2.2745842566937657,-1.4544601333896063
67,14,1.646738434812996,0.6476479170948518
67,15,0.6972729302890663,-0.4511988054584563
68,1,-2.3224806676134,-0.31804699242232054
68,2,-1.6663047626777794,2.037029179518504
68,3,-2.9499974172421073,1.274920586903582
68,4,-2.5298901145677615,-0.39751241836679796
68,5,-4.051228856484325,0.7955730549673129
68,6,-4.013792190137065,0.31571511801139984
68,7,-3.2586245928075313,0.09766307100973186
68,8,-3.525134744656426,-0.537636586804073
68,9,-2.4801827582104936,2.384193580403432
68,10,-4.771022030649618,0.4939798979869462
68,11,-6.112441110390401,0.011046498983335745
68,12,-5.648468301394587,1.1806082086267378
68,13,-5.789028168458116,0.858296305838918
68,14,-3.9750246991473004,-0.35754423537856783
68,15,-4.268638430788068,-0.7526075086319794
69,1,4.579768566436035,-0.32254804123475417
69,2,5.254242014476458,-0.2628544429976535
69,3,3.552609054472108,-2.823077701965618
69,4,5.366034878521946,0.86965684558198
69,5,5.036657671051941,0.8737021826784717
69,6,4.851542224967994,0.4697333701633518
69,7,3.377535903521051,-0.8737098404695067
69,8,3.1391067282455363,-0.009348445110280972
69,9,4.534999490868292,-0.908501416164961
69,10,3.954826254498159,-0.9553419103966023
69,11,3.680237447241144,-0.9703796504234522
69,12,4.591063810772405,-0.37955149910782704
69,13,5.306953102835795,-0.5871177426314358
69,14,7.557023302322744,1.1883928027359736
69,15,6.935764254927236,-1.12485961437907
70,1,-2.870135758409028,0.3156377413222334
70,2,-1.2151028802977117,-0.7150113414740599
70,3,-2.3779707423221526,-0.2877176095199501
70,4,-2.8025167529692574,0.5300499079459245
70,5,0.8369616307631076,0.5332992822215139
70,6,1.0087385691235813,0.9173299818091519
70,7,1.596680223829638,-1.153119975265765
70,8,-0.127180893411864,-0.6415739232778207
70,9,-0.5953930581424245,-0.21822993918542385
70,10,-2.6553681257983186,0.9464716772028582
70,11,-2.941349426291345,0.47895120451084894
70,12,-3.2532634111445504,-0.21539486137992808
70,13,-3.7111475868314163,-1.2577064202977892
70,14,-3.161750505543402,2.1009558189438513
70,15,-6.284468712949657,-2.5889684542592355
71,1,-0.8035671954090746,-1.558884137212573
71,2,-1.3964246337344142,0.013857462184739338
71,3,-1.0594468674299125,1.9940280577206042
71,4,-0.9968281002410077,0.2003549757378772
71,5,-1.2760350724119196,-0.7890293858911847
71,6,-1.1745577109670646,0.42168203946830896
71,7,-1.1126225254238642,-0.31678901048388114
71,8,-0.0015155992329030088,-0.0810037926772005
71,9,-1.4126905343331724,0.8172167344460223
71,10,-3.1418641798303444,0.3600509121610733
71,11,-4.027626036433068,-0.5863923043109839
71,12,-2.9662671374514127,1.045231287211935
71,13,-3.203029061533657,-1.1218192753988865
71,14,-4.633126805687396,-1.6475541158973015
71,15,-3.2160896587780394,-1.0036197308432713
72,1,-2.7547004464797795,0.43327434845272284
72,2,-2.306272469510719,-0.2344063405032814
72,3,-3.196022997237812,-0.4386916293892456
72,4,-3.81103849052357,-0.5587195647628214
72,5,-3.0412519936670233,-1.0980702831502442
72,6,-1.990013657920084,0.4190124625392986
72,7,-0.31606630632260635,1.3893435906076539
72,8,-2.386026508392697,-2.030505019491641
72,9,-2.70354440270435,-0.38136323643569786
72,10,-0.44290761754234276,1.728251858447011
72,11,-1.432627175739569,-0.027277012392173706
72,12,-2.199676544329132,-1.1943438313124968
72,13,-2.2773976030564906,-0.17139675505220864
72,14,-1.7587662714827257,-0.5336997514790135
72,15,-3.193155650677582,0.8768226071514919
73,1,2.0320727594502186,-0.7180534646454799
73,2,-0.08185625005165198,-1.1455880071774667
73,3,-0.09454646345211926,-0.03620585309719745
73,4,-0.027787545127196056,-0.26505468820525424
73,5,0.09407293569865327,1.1979399866379543
73,6,0.1863499059076693,0.211855525854915
73,7,-0.5291609682631625,-0.520239641957979
73,8,1.6608417116639154,-0.4293392976260929
73,9,2.2596960562737114,0.931021307301132
73,10,3.1242773108265425,0.6220895389786592
73,11,3.248064638563656,0.5101055549018316
73,12,2.555780861629338,0.6101535572747367
73,13,1.677453350770305,0.20799330525115156
73,14,2.6038920897217075,0.476398287045619
73,15,1.919321082336181,-1.1539245013270374
74,1,-4.978242412758487,-0.5861366757391605
74,2,-3.4484773511332074,-1.8939695898842706
74,3,-4.3987341274712355,0.42566140270044395
74,4,-5.414273286369301,-0.24653302728511917
74,5,-5.734196016819261,0.5577763536234789
74,6,-4.358335178533431,1.160122014287511
74,7,-5.564000631590108,1.5374706721664206
74,8,-6.820603313021053,-2.1018176883461193
74,9,-4.119032588109213,0.2679405496864466
74,10,-4.73627660875239,-0.11212853043002843
74,11,-3.6758864774636932,-0.3383728794975551
74,12,-2.84960057758866,1.1247191945396966
74,13,-1.2456383017663835,0.05764129997771948
74,14,-1.9824274151127201,-1.3899600767598566
74,15,-2.6217657416505284,2.3907947416110145
75,1,0.43325089748088075,0.7903781653405492
75,2,0.17926174750701585,0.8014928777548969
75,3,0.37951722085978673,-0.3372164962218028
75,4,0.2329070485036165,0.11360552666685504
75,5,-0.37577787494021186,-0.6960961663797413
75,6,0.4266008453539948,0.6283149629873523
75,7,-0.5777349589417937,-0.07540239754818003
75,8,1.477812816924141,1.0634012885904245
75,9,1.2147825453941223,-1.136342149273458
75,10,0.18585433419617292,0.18695816341529767
75,11,0.9730270098355226,-1.1370398559653438
75,12,0.41669247230576945,1.1587451885630136
75,13,-0.5973258594295658,1.0688888416797837
75,14,-2.0134217783603745,-0.6741103724243337
75,15,-1.3205806794054378,0.407380795983788
76,1,1.9840891214414829,-1.496974094285884
76,2,1.519806448751786,0.45617753616873985
76,3,1.581341570138077,-0.3579651637437257
76,4,2.8324863736441537,0.6197813095298795
76,5,3.7098391167011866,-0.3935537056645531
76,6,5.2516424753142,0.42108748778158317
76,7,5.387383033959242,-1.0494449160537072
76,8,3.5126512776747427,0.31818452718715107
76,9,3.277932616053001,-0.7858751033504336
76,10,2.305758882139198,-0.6998271806429578
76,11,2.7744036455093988,-0.2399481978482414
76,12,2.988241638631578,-0.6199358083137543
76,13,3.0719492971972815,-1.954502843960581
76,14,1.3207440986155452,-0.17772319557807167
76,15,1.6301249404186828,0.6220061854312758
77,1,8.274931421806638,0.16886834663369193
77,2,11.219868263642862,1.2589695132858836
77,3,10.78801512292513,2.037056046053909
77,4,8.744320034709606,-0.9554857031464105
77,5,7.131235958377321,-0.3443391789438487
77,6,7.144785119253242,0.7518963810388828
77,7,8.63272325249122,-1.0766650988403066
77,8,9.466929203643378,-0.16129258953883027
77,9,7.440353643025932,-1.176132334748383
77,10,9.668495318546368,1.3634232797222512
77,11,9.249500557234711,-0.2312554772024024
77,12,12.222320279552827,1.0050456515443376
77,13,13.306657445954542,1.156834959692787
77,14,10.59520125028138,-0.4433321126770674
77,15,10.590921153462617,0.22432270130921142
78,1,-10.050740528472815,0.8436723462872022
78,2,-10.296596874872694,-0.9329562064727783
78,3,-10.249050789410243,0.42885015960034767
78,4,-9.499601262909419,-0.5329400581304623
78,5,-9.518869672760088,-0.11782156701515017
78,6,-8.604712613320235,0.251678565611687
78,7,-9.150261617646935,0.6687598173701081
78,8,-8.534024065014968,-0.50085768607386
78,9,-8.393593003875864,-0.12134922255691026
78,10,-9.56969601379605,-0.5481880705032977
78,11,-7.123807023365695,1.9933146685244088
78,12,-7.400920212836455,0.36962682180702605
78,13,-7.113382403530211,-0.2623034111115538
78,14,-7.772894319862288,-0.033469947409982895
78,15,-9.165583843033712,0.11448923006563437
79,1,1.6723086490939232,-0.03243685476129502
79,2,2.4906072014465526,-0.30117380660654397
79,3,3.3550957817946028,2.2498938946832476
79,4,0.8626713068851921,-0.13823350102458712
79,5,3.158671164972244,-0.9502267487533447
79,6,2.592903594547509,-0.8519416717710938
79,7,3.8221200464201095,1.5703275144560733
79,8,3.8450426996927014,0.5113049254126054
79,9,3.2333396503275695,-0.6457980727893351
79,10,2.6217232437046007,-1.021913882416244
79,11,1.7595978082257107,0.3069518242714595
79,12,2.0989750890718337,1.7470243824397527
79,13,1.098785257127748,-1.8034226203379191
79,14,-0.2686031193617444,0.5167719098846655
79,15,-1.2641383168106053,-0.41760153139744194
80,1,-1.5088295595595316,-1.1061202348190264
80,2,0.43033668873295317,0.19317707128097306
80,3,1.9246134199302691,0.042032520599447655
80,4,0.5356794130800211,0.47520111062500575
80,5,0.6410924510055281,0.0089040281221961
80,6,0.9618777903441411,0.45224556253055154
80,7,1.5315673833190144,0.5328219631148418
80,8,0.3400905964632892,2.0702313420404597
80,9,1.0576294431286533,1.9472678885624923
80,10,3.103119243947534,0.9069841176530911
80,11,1.5497720971336908,-0.29606927010660267
80,12,2.3033053414058475,-0.36787641168653895
80,13,0.3634731216895706,-0.7428628464560181
80,14,1.2276040571479885,0.4021832077849923
80,15,1.929449816876512,0.13171188519498983
81,1,-1.9867180454151452,1.3300371323225428
81,2,-1.1186035046642524,-0.4893534592202007
81,3,-1.629430695429945,-0.7185487205587107
81,4,-1.4209438263031857,-0.5753423452432865
81,5,-0.2642852393823041,0.5716948648322242
81,6,0.22486008942371216,0.18269535165977444
81,7,-1.4315984594276099,0.8579358294155789
81,8,-0.44397647732795986,0.4400303678516465
81,9,-2.2818898175644042,1.6926214304148495
81,10,-0.45224558144366733,2.138475904873973
81,11,-2.1614414618351594,0.664096013427826
81,12,-1.2788095517176106,-0.2732700963525552
81,13,-0.289322130126312,-0.19961786290176897
81,14,-1.993743594769048,0.4754006919166374
81,15,-3.1113570922950613,-0.9957392181938155
82,1,-0.5976638151955009,1.2501974385752843
82,2,-0.37045481626028154,0.5775153422107334
82,3,0.7976755667408512,1.0951288167596211
82,4,1.759034959172722,0.3400663726609902
82,5,1.0800044991439943,-1.340136409942083
82,6,0.531148766160328,-0.37027009033721725
82,7,0.02220153375562045,-2.6505794673339076
82,8,-1.2646265062567172,-1.3626181909002533
82,9,-2.274780286336498,1.0839143492857264
82,10,-1.8768401602684817,-0.15797238548481438
82,11,0.6740066001353116,-1.1122522137822994
82,12,-0.41915745552722083,-1.8563469888374735
82,13,-0.24249394567543597,-1.5051324749452633
82,14,-0.7931900156166445,0.3894286438949765
82,15,-0.4240238890772543,-0.3809842539743461
83,1,3.0687167339797634,1.7547945745281581
83,2,0.717071524322747,-0.7323271983116356
83,3,-0.20483345069428993,1.6569308643613392
83,4,0.3034039760287461,-0.8679991102545067
83,5,-0.09985722367994171,-0.1250793448713361
83,6,1.1501227570544599,0.1847328822578004
83,7,1.634641970304891,-0.34160856526406763
83,8,-0.09012981540351339,-1.5291582420116334
83,9,0.2640035081178196,-0.047370577769984164
83,10,0.08594446090384983,-0.46470305617115043
83,11,0.5592790107745291,1.4394373571636236
83,12,0.4568096187870733,-0.5500970761850628
83,13,-0.6208028468267122,-1.5023127468076942
83,14,0.5317566551141393,-1.5510006521454869
83,15,0.190687725123955,0.06635496678965161
84,1,3.773834066431251,0.4709371026393177
84,2,3.098456332391793,-1.1755196741598581
84,3,3.1821726499165934,-1.0374079545927992
84,4,3.3654270685377825,-0.6700979034128077
84,5,2.5713302441258,-1.1146289531474423
84,6,3.3354586258502903,-0.31158159791344886
84,7,4.260386677576571,0.08591029480456128
84,8,4.842177882568611,0.5302527512399663
84,9,6.123864076981857,0.6086474649675341
84,10,3.352623852095425,-1.633602956345117
84,11,3.572540654453213,-0.3567950827568157
84,12,4.138133537737304,0.7406528821458551
84,13,4.0071710202431365,-1.9536189115756486
84,14,2.414049908230447,-0.09342798394879046
84,15,2.4623921735359207,1.6465482908331202
85,1,3.8989238020676744,-1.4698061014845327
85,2,3.9546617693968753,-0.6009115870413902
85,3,3.349498439877398,-0.3219915391784678
85,4,3.152421905737898,1.676220404663574
85,5,3.0347434126894903,-0.34002235439069295
85,6,4.250243991981611,-0.9643555604994648
85,7,3.7390291405128844,0.7855159657313606
85,8,3.9894155131720286,-1.045675816563082
85,9,3.3168015218116853,0.9278768827461011
85,10,4.379376702885677,-0.07916681380830215
85,11,4.804091966800618,-1.2542363555141074
85,12,4.474603525814167,-1.7669531738781192
85,13,2.9777706179604806,0.09209710587595388
85,14,3.9745248174361745,0.7154321477026836
85,15,3.041187158178798,1.6902709957038442
86,1,-0.22271029618560814,0.2625228511419271
86,2,-3.005685919748445,-1.0899842030716396
86,3,-2.303724034009094,-0.8921349622888614
86,4,-1.1832369319498646,0.1605802626392267
86,5,0.52095965692654,1.4190819503597805
86,6,0.9141997423433298,1.021931007746519
86,7,-1.545968429415792,-0.5306259847090268
86,8,-2.3322489962001787,-0.7745606651285477
86,9,-3.56682093920755,-0.30270072896594646
86,10,-2.4528536163897483,0.11510523655351156
86,11,-3.093686177910234,0.5726719082673429
86,12,-2.297924534576841,0.5184084759304385
86,13,-2.2414805217814426,-2.5332220757860586
86,14,-2.4928407679891786,-0.054050243652417534
86,15,-1.8418086329066297,0.668023422898983
87,1,-2.139692797437898,0.740687634378723
87,2,-2.2838580286031616,-1.2009994323310316
87,3,0.2916521060816155,0.007835669741497514
87,4,-0.7870990001680833,-0.4095159147503824
87,5,-3.02288323784061,-0.6922216558135953
87,6,-3.223080118400736,-1.3836986536033093
87,7,-4.180604117575468,-0.573511723252738
87,8,-4.621150092270282,2.24216753648224
87,9,-3.6570524070107315,-0.8187174077006228
87,10,-4.145231985123709,-0.1119026418241386
87,11,-4.475654323033185,-0.41905419484895
87,12,-6.105469463389029,-0.9616026396066101
87,13,-5.1311724214531775,2.2347035923859466
87,14,-5.365941499738042,0.18980191401934227
87,15,-4.8911290667519385,-0.17724262901175386
88,1,-5.151794797824269,-0.2929372167616558
88,2,-4.580700278781202,-1.3566610713568013
88,3,-2.0846684721265363,0.7182668651227637
88,4,-3.741637034253551,0.003806850068033862
88,5,-6.186698745226175,-0.8168250202705237
88,6,-4.358191587472025,2.50622888199262
88,7,-3.6956089861506394,-1.5651888957840245
88,8,-4.277227872201403,-0.5774711823712799
88,9,-4.180371866860083,0.6713638898962813
88,10,-3.015192742389229,0.4714024123227287
88,11,-4.731687332189827,0.6668790564923659
88,12,-4.914480012697425,-1.7762799664882667
88,13,-5.161011695729151,-2.8293781850957407
88,14,-2.688591061494625,1.4773732164836337
88,15,-2.718172296020716,-0.30393072349062256
89,1,1.5729915368323695,-0.1481462290745637
89,2,0.6245160033882499,-2.557918542641254
89,3,2.8898897057875685,-0.19365781552385167
89,4,2.6894307538736575,0.3874403748440287
89,5,0.9667966694998549,0.9885933517670853
89,6,-0.03924527605518624,-0.40580268542584363
89,7,0.2321110048789784,-1.279440573167751
89,8,-0.20592850398426876,1.2956196841737968
89,9,0.9646713337145776,0.038394066012331404
89,10,-1.264980919189627,0.3166093319086693
89,11,-1.1791026184203837,-1.6962317333690675
89,12,-0.7058357439270178,0.4182690360380343
89,13,0.20219701304124837,-0.5029224940793648
89,14,1.410729637937007,0.6275008225655354
89,15,1.7851741052739336,0.5444829477733939
90,1,-2.7629672819723656,-0.07044507255027156
90,2,-1.7111964263005413,-0.16387100860402257
90,3,-0.21705518450928207,0.8751641949871769
90,4,-0.5998647506196929,0.9857231026924197
90,5,-0.8159318715728379,1.1899629764329396
90,6,-0.440819036024075,-0.16582761252283906
90,7,-1.9515959405647565,-0.4058001369873297
90,8,1.1124365849255642,0.9680750253130062
90,9,-0.5003041817413937,1.0421771684331325
90,10,-0.788898465271582,-0.11782468813845373
90,11,-2.0543520690340515,-0.20556770378920752
90,12,-2.058727200826633,-1.025139132205405
90,13,-1.7168824912757814,0.11634686679677915
90,14,-0.47174761725990616,2.004707600319033
90,15,-0.09609837422805317,0.4976087483718263
91,1,2.79055600165194,-2.1539077554209816
91,2,3.096338204759657,1.612519676732773
91,3,1.582155796126949,0.12070677987575547
91,4,2.8071487161637894,-0.2999102246666932
91,5,0.970335088651129,-0.8429192464523103
91,6,0.35585665322708426,-2.131286133793873
91,7,-0.27705885924789125,-0.7859623873620895
91,8,-0.4707802823103008,-1.7051505593270995
91,9,0.5431382076688402,-0.6263469615790389
91,10,0.22627543528217992,-0.876353556387275
91,11,2.0017477297319664,0.26407401211327036
91,12,2.458388381288475,-0.33063914091248536
91,13,2.1229655901922624,-0.09138184635482567
91,14,1.4332840778833678,0.22736154061335484
91,15,1.7813269106886687,0.6419695267572223
92,1,0.9192047986845333,0.9181816483671892
92,2,0.5363195546265194,-1.4841974989352384
92,3,1.2877457184982555,0.03338925321993117
92,4,0.63589980654976,-1.1503042115380566
92,5,-0.19945073116599238,-0.9626634945874007
92,6,1.1777823645949306,-0.9909152329100964
92,7,1.8686665955573356,-1.3071723809706381
92,8,3.6829565129262916,1.8101247206395426
92,9,3.179709752373977,1.3324930720614934
92,10,2.32433865512432,1.108175839027125
92,11,0.05125973802635042,-2.3400155221896175
92,12,-0.21691490151383575,1.478537089153158
92,13,1.1085585833409104,-0.9840356457696966
92,14,-0.9464319994333754,0.910184151382034
92,15,-1.8545761021589398,-0.3629345676616469
93,1,-0.5076113541701148,-1.5371207018338897
93,2,0.4917096252857851,-0.8266033207252128
93,3,-0.4984547697318438,-0.5608862722508939
93,4,0.09669712848613299,-0.645998499082368
93,5,-0.07321968809327584,1.1718864279797316
93,6,0.7358889355318308,1.534249841346705
93,7,-0.9782139315635687,-0.20532781171980682
93,8,-2.2041461261842357,-2.571287794162204
93,9,-1.125472068893846,-0.36053004490880564
93,10,0.7386961072774216,-0.5406785827447544
93,11,1.2784303048822807,-0.966710270333403
93,12,0.8133651694013593,-0.49981528873330405
93,13,-0.8039731092816966,-0.8452121187958342
93,14,-1.777532670988384,0.19929090381382508
93,15,-1.890716796464416,2.0190410453203778
94,1,-0.1117155490932608,-0.880369398665434
94,2,1.2952483367135148,0.6898191046354708
94,3,-0.030473464375963433,1.2082485167465717
94,4,-1.1718837471066395,1.282617557293857
94,5,0.06237190330735298,-0.06030199307957803
94,6,2.022696434293307,1.8288664863092643
94,7,2.487834199305698,0.899772246126319
94,8,1.0260919637011647,-0.7945158197797249
94,9,2.526810535214803,-0.4837216718568863
94,10,2.4063484731392037,-0.054386853003605996
94,11,0.7776129336848353,-1.3049141824787207
94,12,0.15365210311398714,0.3715280382436357
94,13,0.020260640146351254,-0.718795972020716
94,14,-2.444323552074975,-1.0464180885744352
94,15,-1.830344122572277,0.9471751695769218
95,1,-4.6469066779462915,-0.5147771547921919
95,2,-4.976913116533082,-1.6286839955685881
95,3,-4.531851421701078,-0.1828451404248624
95,4,-3.599059410794993,0.6740189896717776
95,5,-3.757081647627581,1.3226622414667646
95,6,-3.5849378037808886,0.47424341015164806
95,7,-3.618268599067519,-0.5615845583752982
95,8,-3.6452970821542707,-0.7536004466887157
95,9,-2.7540035339187683,-0.31634451418175613
95,10,-3.290507932663522,-0.9348832370882313
95,11,-4.819490423506422,0.8930794365924168
95,12,-4.274001621408641,-0.3700324581028164
95,13,-5.855279017951478,-1.254208046939592
95,14,-6.619897369790763,-1.2459394657919014
95,15,-5.178397281412842,1.503483660659671
96,1,4.650388240720414,-0.3918226701861793
96,2,5.05733957666047,0.026115800663992557
96,3,5.218969562672192,0.910829903250273
96,4,4.295000131948561,0.909838160870962
96,5,3.7024645430696417,0.8387090322408055
96,6,3.2986373497890353,0.10256487299183999
96,7,2.576025735760187,0.031546452114525864
96,8,1.4953953296729814,0.556001372737818
96,9,2.4480580698462915,-0.6584687515858989
96,10,4.132653834283077,-1.1939691068669152
96,11,3.6257005367518533,0.8980681639958416
96,12,3.721211868752515,1.6768963925534652
96,13,2.4190250498959625,0.6098779322124497
96,14,0.9320535173654187,-1.7495989350406855
96,15,4.222235959187669,2.3291585779972106
97,1,0.6010607577181547,0.40139445706070237
97,2,1.4044364301443149,-3.022084707314602
97,3,2.1639120988199654,-0.36412063511624904
97,4,4.09902790526872,-0.10808568684160959
97,5,2.7236574787101846,-0.7092106909121995
97,6,2.7483544310115815,-1.6231150486786194
97,7,3.0000611243728987,1.2467862844898079
97,8,2.4095564030365786,-1.8000359164714475
97,9,2.4805512520442266,-0.40773500570491883
97,10,1.722068751182389,-0.07298360432919689
97,11,1.9114832451448547,-1.0186838987828504
97,12,1.2711671440283139,0.7229060092661586
97,13,1.372260062206369,-0.8675424522579834
97,14,1.6419230335009958,-0.1645673224125554
97,15,3.417082815218058,0.38120853371102537
98,1,11.031709123630131,0.485684028085625
98,2,10.860323005084348,0.5260083046071844
98,3,9.806951665958994,0.08833112596694725
98,4,10.392028045272504,-0.9269972883732697
98,5,10.293944823209912,-0.034759904076715614
98,6,12.66087434513976,1.586177830250185
98,7,13.376693308351207,2.0314715037725506
98,8,13.872828377333379,-1.5382092454342988
98,9,14.327034084075802,0.8262904307785585
98,10,15.531387955699008,1.0861751735034215
98,11,15.21805147129021,-1.8286564995977435
98,12,16.750472715803443,0.9054955018553212
98,13,14.909391673932259,-0.1984186364819378
98,14,15.855271936015741,-1.4280451467017745
98,15,15.953623850419913,0.45910099957989836
99,1,-3.857621886642927,1.3390488918223535
99,2,-3.9356396104567537,0.24154999595567334
99,3,-4.547960820973096,-0.31140510941671856
99,4,-4.76857269522329,1.485811989660772
99,5,-4.863069056986353,1.4123190552484164
99,6,-4.518448164586632,0.20251082307313145
99,7,-3.2560024127783054,-0.16555744828574157
99,8,-2.956305456895621,-0.37640621015770176
99,9,-4.673499461866311,0.25263720910002874
99,10,-3.3921143950723542,0.17014409498130556
99,11,-2.921058876815063,1.158546523682156
99,12,-3.351287544705666,-0.8199199438877415
99,13,-2.208706208120831,0.05155116965536481
99,14,-1.903920074771527,0.011952501053780585
99,15,-2.8138581397007822,-0.8270331493462957
100,1,3.5561217148908995,-0.8398246340179246
100,2,3.8248025465366022,-0.2622037080976083
100,3,4.52952262805617,-0.9872899458413519
100,4,4.0622107961073946,-0.01874759245692526
100,5,4.08686211187562,-1.2385514638260942
100,6,4.2684163382834255,-0.07686362438368216
100,7,3.1071965597009816,-0.3922189349486794
100,8,4.476205557865653,-0.33553788479921015
100,9,4.303552176561187,0.0978648545571494
100,10,3.979857231503664,-0.7964654920809294
100,11,2.6688873574893868,-0.9624890218231791
100,12,4.369027709836296,0.1800722012824706
100,13,4.947956927764644,1.7137518183217952
100,14,5.245084766958897,-0.5559755663283462
100,15,4.784541962661055,0.29359348980444566
101,1,0.0605800168555215,-1.5805446519167883
101,2,-1.4175145251105923,-1.3156530395473665
101,3,-1.422533853306824,0.12530829914356142
101,4,-0.9624508889239878,-0.5947733237771534
101,5,1.5875855845879068,0.9328294834639468
101,6,2.7015193792781043,0.1571663839343339
101,7,0.9259769152987818,-0.8885618705312402
101,8,2.527907403929273,0.5363752989472075
101,9,4.948445203258032,-0.8951365686240996
101,10,4.733642944334562,0.9086778892173997
101,11,6.240556947767049,0.30241121278068767
101,12,6.259798189197097,0.167576946033428
101,13,5.693938973322425,-2.2396544397067797
101,14,3.5980813342005336,-0.23060256513865213
101,15,3.0781798304268086,1.129276299919723
102,1,6.210310615855406,0.6025341634397672
102,2,5.003521552672499,-0.9856005241284472
102,3,3.3175345507558953,0.6406190989678763
102,4,5.385590680495281,-0.27575088672751624
102,5,5.787705955826173,-0.32510245599515564
102,6,5.835521497111941,1.6595515213939878
102,7,5.400866164801179,-0.2651158547238037
102,8,4.0710149593141045,-1.1608634235842819
102,9,3.7514672099971387,-2.7253843704511205
102,10,3.1096888770675966,-0.0852185522386084
102,11,2.3695587160199425,-0.0454939060479518
102,12,3.664838007336486,-1.7063498258414118
102,13,5.292267954740696,0.28898646764530783
102,14,4.997040093588375,0.21394830573348608
102,15,6.483465443967324,-0.3169537194031955
103,1,1.4252831682404614,0.602303973365835
103,2,3.5781193205506896,-0.3807630305135275
103,3,1.7695456378967704,-1.644048348285674
103,4,1.334091414638579,-0.3894499539638218
103,5,1.3898111172493877,-0.22062669422172
103,6,2.2390406395820377,0.2827923661441515
103,7,4.043314386997551,0.6970698819804484
103,8,1.5950299621097752,-0.7430471001413111
103,9,1.9746737787421482,-0.034745677330897805
103,10,2.4628049014692266,-1.0247580234098055
103,11,2.3231827105103835,-0.2859520114924665
103,12,3.3476648416668118,1.6413664102271563
103,13,1.6008156066607604,-1.0690841376115647
103,14,0.8621111100366452,-0.8126829595859728
103,15,1.025685725177771,1.1778368833039727
104,1,-1.8526744156366244,-1.1402614811576932
104,2,-2.261553045880347,0.28230132984170175
104,3,-2.7893526162923417,0.035568652636109595
104,4,-1.0806464974033074,0.6696178685619807
104,5,0.24197150118342536,-0.7138355942690308
104,6,-0.8659915649535213,-0.35976817568399055
104,7,-0.7905147178697685,-0.5300964804154388
104,8,-1.3564994709427962,0.08530412997835551
104,9,-1.597631712756431,1.04717092842658
104,10,-4.969778627124553,-1.0359870222825331
104,11,-3.920289251708547,-0.06106299808939515
104,12,-3.0766929201735116,1.6127932476468452
104,13,-1.902292429589175,-0.42642382778651733
104,14,-0.5899371028976741,-0.5796415119245711
104,15,0.30985522039552593,1.3938336131417972
105,1,1.5396940598917055,-0.04207530836489167
105,2,0.786255464009987,-1.305866047876723
105,3,3.4882180047753053,0.08988096170642623
105,4,3.3947685841949267,0.04149292888045403
105,5,3.7992541466475584,-1.8979880894894907
105,6,4.704016574589824,-0.026428299405958377
105,7,4.21848847457498,0.8775405228204488
105,8,3.5465066748112486,-0.09462800534799598
105,9,3.9317241359549655,0.38793258069104486
105,10,3.7640238430468904,-1.0505969166406792
105,11,3.9013351462954704,-0.1740165062730731
105,12,3.6605962636188947,-1.6507427452626662
105,13,1.6006771229555459,-2.2386820761146784
105,14,1.6148440813342988,0.6276896944743845
105,15,2.537161720340033,0.6916871052027787
106,1,-3.370163076031385,-0.8212436975584422
106,2,-2.756991842002451,-0.002962348560778957
106,3,-2.95159917393637,-1.5276092595946769
106,4,-2.385946981057741,1.6466838317255799
106,5,-2.0686257596575035,-0.7562504002894366
106,6,-0.6201082222744547,0.3660550336444112
106,7,-0.69069145302237,1.38200913456847
106,8,-1.0267813189727373,-1.6325777952386948
106,9,-1.9071562284451424,0.9093478835748546
106,10,-0.6931187141737198,-0.16834833602694504
106,11,1.7958231466747896,1.2362441680001353
106,12,1.4107254537090625,0.5793371588884566
106,13,-1.3164804125198564,-0.6403318557047026
106,14,0.3381658681129962,1.982597043056321
106,15,0.7179145315173577,0.8718690482107017
107,1,-4.704862039457771,-1.8975452016933414
107,2,-5.012012862002952,-1.2204209088972797
107,3,-4.456951701838024,0.3574901228880026
107,4,-3.2131901508145213,-1.2840169774188688
107,5,-2.426812595934994,1.3373716635486115
107,6,-1.8864408491629157,0.7880907927457277
107,7,-1.157425944563514,0.002227472950775271
107,8,-1.37480464985126,-1.3545262491853594
107,9,-2.9240535920824584,-0.2596793280327363
107,10,-1.5656098344217217,0.528573372325123
107,11,-1.156598560364602,-0.759531932375023
107,12,-0.6366008750702492,-0.8043691326702891
107,13,0.6665953607916827,1.5041799309250008
107,14,-0.0858171253658152,-1.4763579090221957
107,15,1.242629575905387,1.184136398978569
108,1,-2.412294934715312,0.4912767755215571
108,2,-3.66488229820245,0.4794482440670562
108,3,-3.5225274374867275,1.1874473634927643
108,4,-1.7956056580710742,-0.8011372786508805
108,5,-1.538496785273235,1.555099456355439
108,6,-0.9346112414591506,-0.3480586802563117
108,7,-3.4105660892443055,-1.037459259772038
108,8,-4.48529454578798,-1.1276276787873594
108,9,-5.036929326996983,-1.3751053327214589
108,10,-5.930342473057246,-0.11719354292037645
108,11,-4.688122264072192,-1.4646604354114283
108,12,-5.0869286066959525,0.5639673406326388
108,13,-3.861236971425075,1.9307527138084981
108,14,-1.2211664263724957,0.9327439510492531
108,15,-1.6258948684403578,0.9280039079946194
109,1,-5.394348695567571,-1.8113129563626909
109,2,-6.115643292313591,0.295079860944501
109,3,-6.206318782338396,-0.5725644071210754
109,4,-4.708989949208227,-0.6404951883596214
109,5,-4.918821161015343,0.8716212563673525
109,6,-7.298261377066232,-0.6961435535103886
109,7,-7.131174461639285,1.0675950697720602
109,8,-5.950792841021953,-0.5554988729786613
109,9,-4.852983084977389,0.42083665626646677
109,10,-4.701783975347,-0.1084785777027614
109,11,-5.704340177039375,0.47215424489658536
109,12,-6.347872882652482,0.19896884221899602
109,13,-6.933100474404226,0.1812233943655552
109,14,-8.383151993058345,0.770893686138698
109,15,-8.446475662031451,1.3645038770696656
110,1,-6.641927849926798,0.4017312954071527
110,2,-4.017616795029739,2.244293632813568
110,3,-5.3167111992044855,-0.4866652125893908
110,4,-6.934049762145262,-1.306603628248731
110,5,-6.669012612093936,1.0939698357005676
110,6,-6.27527688494554,-0.3157861870615893
110,7,-5.592780335623191,0.5614067195849638
110,8,-6.611300726660877,0.13721695510120197
110,9,-5.7113703714599415,1.1463361777098307
110,10,-5.860699900749281,-1.0853723841214313
110,11,-5.952401000943661,0.29645628983575834
110,12,-5.47612531269511,0.0012361194642225915
110,13,-6.874851168088245,-0.3305036571998851
110,14,-6.151080006744569,0.9795492992551942
110,15,-6.533262295378588,-0.38581286855910735
111,1,2.4969849285895402,0.5549464423877487
111,2,1.3289486692045558,-1.5679956804432054
111,3,-0.27600585328439786,-1.4171400937368468
111,4,0.39520303115056077,-1.3337472382041993
111,5,2.160541281051632,-1.1715094465456177
111,6,2.5738882954843074,2.181534677105659
111,7,0.6061364526707329,-0.7748402929932302
111,8,-0.22114568519984734,-0.45716653292152254
111,9,-0.586281341969618,-1.6897787127936608
111,10,0.758044612454464,0.8352538623335534
111,11,1.1839864679873275,-2.067318195448943
111,12,-0.17459658842125125,-1.273973263381222
111,13,-0.11898978722367531,-0.10662758328296668
111,14,1.366921843135949,-2.2442145187541773
111,15,0.46906442147026084,-0.5265793821427269
112,1,2.1056033230672626,0.205867431545692
112,2,1.9279698288870324,1.3979371874984352
112,3,-0.036790419569975974,0.45509191869272736
112,4,-1.8569454624264312,-0.09159504963235149
112,5,0.06643884201229444,2.861678447739177
112,6,1.8850793348993324,1.3430751872224078
112,7,1.5245636448640452,0.8942930740156185
112,8,1.1032035104559483,0.3462740932090231
112,9,0.04185754846665746,0.15593871959214392
112,10,0.15795301051923272,0.14017144752565144
112,11,1.3664217302056132,0.6830367261299066
112,12,0.8110588962122737,-0.34958059170164846
112,13,1.258722363094493,0.8006283166950773
112,14,-0.6013981072051073,1.3942042635445273
112,15,0.3994161167874057,1.6725780893661084
113,1,6.1523092496577005,-0.9625587498921616
113,2,5.619036639565579,-0.024042236871606903
113,3,7.5217107292796985,1.2653757088361532
113,4,7.126543706183229,0.6958631242707474
113,5,6.7260983640168766,1.3668169453231265
113,6,6.573782271322227,-0.15222106659888665
113,7,6.496121723327358,-0.8280455429557405
113,8,5.464557988414159,2.049140780050977
113,9,3.670531858458932,0.20098902627790055
113,10,4.215667476677195,0.04126935132468862
113,11,4.643019942683462,0.25671839046134504
113,12,4.98560146354416,-0.9383818266340569
113,13,2.619031464372946,-1.154154773195665
113,14,3.2315566535089855,0.017120909804741343
113,15,2.5155788814549735,-0.016727520795281905
114,1,-3.5546604700418385,-0.8862609069580459
114,2,-2.8013397485159213,0.3454977926560888
114,3,-2.1096421894408075,-0.745653354039902
114,4,-2.2336657665826074,1.2348443974789385
114,5,-0.7599527504052106,-0.06259936806007442
114,6,-0.8959252174297454,0.048862834827003335
114,7,-1.4942178652266995,0.3986589650336017
114,8,-2.3846433659647817,0.032911207852707174
114,9,-2.8261447858893325,-0.802130565255116
114,10,-1.7891204778797731,-1.1719727596671776
114,11,-1.9405687097519089,0.22475887429695152
114,12,-0.11770101829737323,0.3234049790197145
114,13,-0.23303742065509836,-1.31781083504843
114,14,-3.2661999545460985,-1.1777178730505284
114,15,-4.069886585736905,0.04259978853627679
115,1,2.270152265748138,-0.058993202265958306
115,2,2.629346806271621,-0.05519757965643606
115,3,-0.5759082132365827,-2.6132312257546704
115,4,0.4230165547640964,-0.17038009599049833
115,5,0.5429032200847016,-0.010256488319044556
115,6,0.4944887585677102,-1.0135250296671352
115,7,-0.1228551740713888,1.6664727182399595
115,8,1.3590762701437835,1.908491956095032
115,9,0.11504206722522903,0.3861419660216436
115,10,1.0267674462514789,-0.822250785492805
115,11,2.5814928728534245,1.6264881980575039
115,12,0.8504556163450161,-1.06061825835054
115,13,1.5110831364724866,1.2987136599743656
115,14,2.6518768169825258,0.15986194891535843
115,15,2.5698002005216973,0.5951427466715619
116,1,-2.684345539653453,0.3611223819052971
116,2,-1.952989436389138,0.7236339395847439
116,3,-2.964915642910386,-1.1817331108720799
116,4,-2.8742754977869827,1.3268492079898841
116,5,-3.199356196271247,-1.2592499881909673
116,6,-2.04501168552352,0.2706333974673507
116,7,-0.3119486192933354,-0.5869835362154286
116,8,-1.0516471835725885,0.8219227371664853
116,9,-0.46650266148591135,1.036698983787432
116,10,-2.617240934450259,0.08951973166358843
116,11,-4.48918619024002,-1.7639613942634036
116,12,-3.8434655801599495,0.8985710742951126
116,13,-2.946138620458306,-0.5974688388043473
116,14,-2.077345701482386,0.37848640608077155
116,15,-0.5602952899792066,-0.47929363594745045
117,1,2.3477298679001732,0.46211548408908826
117,2,1.2458213735083548,0.32419875622834876
117,3,0.2854138434569322,1.148500353307056
117,4,0.8312926364807245,0.4605259083724819
117,5,0.8167723269057012,0.7361293251446869
117,6,1.059927016462244,0.6744021357807285
117,7,-0.12480806203921002,-1.0464757834686373
117,8,2.9654490339020114,0.09554251154915397
117,9,1.3963467542693264,0.2154940863337467
117,10,2.557856037397019,0.8666642352525514
117,11,1.5884649005025993,-0.3485586807786242
117,12,0.7284764118938958,1.2711531381760741
117,13,-1.4868575212401582,0.004682271740938417
117,14,-0.5241920491935609,0.7823804024276706
117,15,1.0260326549729588,-1.3638644678810388
118,1,-7.6835795615969325,0.557388295377063
118,2,-6.489616442936141,0.8213670128586177
118,3,-7.785001617803172,1.8236697470156145
118,4,-6.2238081710595905,0.731036451980813
118,5,-7.77014841681385,-0.6373283864648032
118,6,-8.767889111537231,0.1905886493451157
118,7,-6.392673551799562,0.5948818510744884
118,8,-7.924270795867511,-2.2805435770452043
118,9,-7.2930301517981775,-0.31762028439438755
118,10,-6.895991655209834,0.41220422214167884
118,11,-7.391162152568776,-1.9300341073457181
118,12,-6.3230111501106485,0.18458798534337365
118,13,-4.715444782248471,-0.8253301015445678
118,14,-6.827054020451582,-0.363519182705391
118,15,-8.381376957593769,-0.802776080607594
119,1,0.5191848534617212,0.06643835303000097
119,2,0.05675284169814854,2.0539480541796866
119,3,-0.3248411850749713,-0.414911213027493
119,4,0.6344025908786459,0.7177538635974342
119,5,0.8740355671908862,0.045335633173009676
119,6,0.9011350449374254,1.1385185816027212
119,7,-1.3422382648399576,0.4753360583526303
119,8,-1.9933496521214398,-0.6747726489474073
119,9,-2.0008657761434154,0.03033620267530374
119,10,-1.114783330458043,0.10811514209300806
119,11,-0.6844017616861193,0.42663403471504197
119,12,0.6210192240081351,0.5428861805938829
119,13,-0.9566490843861426,-2.3941579080920525
119,14,-1.2169608355843406,0.9286773730319976
119,15,-2.5564500084033517,1.0668824273581556
120,1,-2.7935099315641887,-1.4102524559101448
120,2,-3.1529335540746897,-0.5816772298533607
120,3,-3.090229027246753,-1.7371398705785337
120,4,-2.7705685297012668,-0.9620830250581335
120,5,-3.224074798247976,0.8559479848352425
120,6,-3.428572980284226,1.131737254306114
120,7,-2.812707957799557,1.1048695714084273
120,8,-4.145418535332629,-0.14858052179699213
120,9,-4.34547505560534,-0.14593736090170684
120,10,-4.291815750598114,0.26342913723242045
120,11,-3.972942819796308,0.7300643889542502
120,12,-4.456898654934049,-0.8586037720059332
120,13,-3.3834785846750917,0.1955544738376954
120,14,-4.364062654966439,1.2238387219839286
120,15,-3.6424685413026743,-0.334266077545764
121,1,-2.483713248926672,-0.2168579032135047
121,2,-1.0264318565728539,2.545600574561498
121,3,0.9334525782167381,1.11149168372505
121,4,0.7605837199334816,0.11111889949054611
121,5,0.12401045311382619,-1.6924979273499703
121,6,-1.226890792524232,-0.04030766065582701
121,7,-0.34214475858398075,-0.7906097048032238
121,8,-0.1993221293642244,1.9877528732305687
121,9,0.3998062362389154,0.608305266513804
121,10,-0.34314701474713466,-1.2873370536141298
121,11,-1.2509691857989826,0.12202685881842988
121,12,-1.9608215721656705,0.8557404546883769
121,13,0.3023477585034591,1.5513249212537683
121,14,1.4850602289232813,-1.1298835530725961
121,15,0.548482597921232,-1.5026838477585278
122,1,-7.7459177696609425,1.7026081120408862
122,2,-8.36103823072765,-0.057739215398015714
122,3,-8.7959879196445,0.9193886793947978
122,4,-8.878717460163424,-0.5348553142580295
122,5,-8.481654044649726,1.0464126962042675
122,6,-7.544435242885919,0.3855042482444657
122,7,-9.275351406897396,-0.023376300409991578
122,8,-8.267921473547593,0.16433980588988625
122,9,-8.449054862166978,-0.13531634270355067
122,10,-5.680840546545889,0.17815412862620542
122,11,-4.667250653483049,-0.09647574404173825
122,12,-6.066055197270542,0.2158720344354303
122,13,-6.40955527169043,0.4967861448240014
122,14,-6.240293956869918,0.05098227575082285
122,15,-4.950307114775798,0.003792082752898085
123,1,3.491303108468691,-0.8352281824794868
123,2,3.780403402524549,-1.1241077541294908
123,3,3.3003770567344093,-0.8850367009627831
123,4,4.007821447593633,-0.36588662871887206
123,5,6.110236733656702,0.4207604378156446
123,6,4.476875176730851,-1.1218546589970193
123,7,6.377294747688328,-0.4594981867586352
123,8,5.850096315995009,-0.10474106676915787
123,9,5.1891709391721905,-1.0814691338082694
123,10,3.308468673268033,-0.9037680092428406
123,11,2.8301643939272667,0.3679863086479105
123,12,4.806716520140247,-1.2293941060139677
123,13,4.658742974217562,-0.044487045265243316
123,14,5.947297831838224,1.0781120415601124
123,15,4.098796401888222,-0.5774603250599329
124,1,3.6951111835080566,1.0692474168313504
124,2,5.054812833313364,0.2816705343701447
124,3,3.5205306822128613,-0.5950241202801022
124,4,1.5311889681668287,-0.38952080594321964
124,5,2.0757375540342635,0.03140917548598463
124,6,2.1918568783972434,1.0329194269781126
124,7,2.431629828876254,0.7781422569741241
124,8,3.726241769773936,-1.4187355280368579
124,9,1.8252431289650979,-0.2305362179930486
124,10,3.2561297288129802,-0.28154569688620296
124,11,4.864714535823143,1.8224690016240481
124,12,3.8719738364646834,0.7218817250368613
124,13,2.4046855164202645,0.6341249284875541
124,14,1.7892749706810493,0.3908654995674065
124,15,2.670847062851411,0.25802068429649233
125,1,2.2247253295887526,-0.13256563038981792
125,2,1.2751382831056792,1.455181819625075
125,3,0.2941834841467754,-1.1576285367663546
125,4,0.528086418224477,0.43587217933369327
125,5,-0.41957286949729045,-0.8051606548161745
125,6,-1.2481316410663679,-0.7185453109566158
125,7,-1.2264219952060036,-0.3401923197257174
125,8,0.7196418282549834,0.4319516593101161
125,9,1.2571678674682014,0.08271792339607151
125,10,1.0354340168684557,-0.3673989817435849
125,11,0.5449674136809066,0.6011025521586054
125,12,-0.3917582476450251,-0.4738426693921501
125,13,1.204897686260805,0.09314820595252746
125,14,2.6578482216335706,-0.7367355180208692
125,15,2.5228471361386466,0.07698667220468382
126,1,2.274267179584011,1.8052003385077537
126,2,-0.20017598695076932,-0.42473666508205776
126,3,1.9540900552135452,-1.2900818244067491
126,4,2.9624732074368945,-0.5785240076656185
126,5,1.02642690901594,-1.1739084832502815
126,6,1.7716293907909428,0.5247579276523138
126,7,0.3578138992175697,-0.012273388688347923
126,8,-0.07086003556222842,-0.8818354709465726
126,9,0.6404605822431957,-1.1158358255260028
126,10,1.1717317389505746,0.5330524749695149
126,11,1.5579676961367943,0.5180506446577365
126,12,2.804198657312201,-0.47189516352756633
126,13,1.6928862228579118,-0.030708978907102384
126,14,2.1221498070692246,-0.653222854195249
126,15,2.5564226189676207,-0.9659364652754666
127,1,-0.9708618956582533,0.05780370096089758
127,2,0.7477926427374829,0.4615385534499521
127,3,0.5581670180552066,0.3121017335892504
127,4,1.1993258161040468,0.2210313154136487
127,5,0.20197319780593054,0.17888507179566399
127,6,-0.9655968657659787,-0.010765234468565466
127,7,-3.130405244873207,-2.4751753664313307
127,8,-1.301217401458639,1.3415056638522804
127,9,-1.8129389216592466,0.08496051491976661
127,10,-1.7794960147464352,-0.23939993821750233
127,11,0.8257167659412084,-0.23005714570453936
127,12,-0.01591417876461898,0.6027168893105772
127,13,-0.07185611479697349,0.048264223210437725
127,14,-0.7459182380993226,-0.17894431564194163
127,15,-2.818514633445888,0.2374480533106767
128,1,1.4563231188929133,-1.1683507470562053
128,2,2.2549585218441566,0.6316341610548813
128,3,3.3082808094171203,1.592624913788772
128,4,2.3338111486800766,1.3767722030786083
128,5,2.110564362802734,1.2938359432417588
128,6,1.9606245093796246,-0.181925604204408
128,7,1.4935897158517935,-0.22448453443295932
128,8,2.142853541079491,1.7549523288339928
128,9,2.236041736716713,2.417853704862253
128,10,0.4799307946095568,0.9216734119985672
128,11,0.9676319620059162,-0.2367878174342086
128,12,-0.16357729269122578,-1.2990240451871924
128,13,1.0923824107987188,1.3071182287589482
128,14,1.4829839906154796,-1.4753836991149283
128,15,2.524552248502416,-0.7443533135467896
129,1,4.648702146949936,-0.3162599590751503
129,2,4.0889674191149705,-0.35376913071684535
129,3,4.713964087330665,0.41103210720504135
129,4,4.085223906938671,0.01995344126983807
129,5,4.60260005285758,-0.19946834367926622
129,6,4.514918591774869,-0.652183579143352
129,7,3.81055894666582,0.5467482689816472
129,8,4.329887384125789,0.5532775141321151
129,9,3.0606663197112,2.043779282261145
129,10,4.363036005376406,1.0121958638661535
129,11,3.0178450892438264,0.608667383475133
129,12,1.7680258284355503,0.2911757743955582
129,13,2.7037462260011997,0.2389523540075587
129,14,3.7123327660114684,1.1679541361457078
129,15,3.958517996010584,1.7983662150314585
130,1,-0.14598737641676673,0.18541146589007138
130,2,-0.09240822232791812,0.39889923528370236
130,3,-0.46515688238394304,-0.20127514996408985
130,4,-0.9498764134946229,0.28789018383450277
130,5,1.2046685311768428,0.3460579295942988
130,6,0.2666475554263198,-0.9975865990133476
130,7,0.2852286775305545,-0.1041628345087759
130,8,0.8911612403124469,-1.3127442490700094
130,9,0.6954978077282982,-0.15468944405119797
130,10,2.31770744996024,-0.7854540316243833
130,11,-1.6601921231126426,-1.154376452138798
130,12,-0.2910685123633614,-0.750429025262938
130,13,-0.09179462485697487,-1.8198469879164798
130,14,-2.2740217855800324,-0.9550531148459618
130,15,-2.3473659530286928,-0.000279802024975444
131,1,-1.0805457282283628,0.04896699686266383
131,2,-0.8564821562165228,-0.8188583322005587
131,3,-1.719285357176287,0.7818917413934557
131,4,-1.1874945119751987,-0.27464245247981445
131,5,-0.682677197648662,2.0343480911782943
131,6,-1.7260967406263747,-0.4031870959168495
131,7,-0.13413639424283486,0.4170619022137437
131,8,-0.17274224552002365,-0.5629652597075049
131,9,0.06193006644063276,-1.2525239298124946
131,10,0.9507989797725642,-1.1296425991350205
131,11,2.340250036861777,0.007016211973721701
131,12,1.8005016036809898,0.5833809582515441
131,13,1.2753292111242724,0.764348291032211
131,14,1.5732251566494933,-0.3885123055167198
131,15,0.06531519485752346,1.3149575634012243
132,1,-0.9880447469849875,-0.9653413250312027
132,2,1.02903165547432,1.866279039355876
132,3,1.6619442197784258,0.38668800433549855
132,4,2.32989045304171,-0.6320617951385378
132,5,1.8704320721721281,-1.3387583834395986
132,6,3.932388869930869,1.011267621445777
132,7,3.656308805775466,1.570994151466208
132,8,2.2757980644876104,-0.36781437532825917
132,9,1.0156322682921177,-1.1281642633412328
132,10,0.8102179082407455,0.8895034569944831
132,11,-0.05880662063804451,-0.9576936407211892
132,12,-0.5306203207796922,1.4087424556194825
132,13,-0.774627464198724,-1.5554491216468793
132,14,-0.00043047933313966613,-1.146384471320604
132,15,-0.826308650523729,0.1626385147026121
133,1,4.024129373592488,-0.3708140608420554
133,2,3.9287401696891546,-1.0176089115830256
133,3,6.107675441659039,0.13911459995021055
133,4,5.996230952966659,0.9223481878792109
133,5,6.1475237082976495,-0.5062019150926276
133,6,5.803278688431314,-2.527998957339168
133,7,5.700903490205817,1.436394166599137
133,8,5.900821189986168,0.761031482533295
133,9,5.382362306060744,-0.7691269070322387
133,10,4.331714614724022,-1.2091639894116775
133,11,5.106030737716511,0.46659949508866083
133,12,5.420133908441663,0.6569101865732198
133,13,7.4888884189253755,1.959520959902621
133,14,6.889907839980551,-0.39036226277066766
133,15,6.373147126568129,0.6645598344905009
134,1,-3.62247403189149,-0.21673902139196913
134,2,-3.2948088207094437,2.0957621052128927
134,3,-5.796553732920836,-0.6343291140844352
134,4,-5.52165299243367,0.7507246846626582
134,5,-4.825172401900892,-0.6491417877707739
134,6,-3.464052096752666,0.5817065416691368
134,7,-4.929973757501927,-0.6843261809664003
134,8,-5.492721720297599,0.9141372931472915
134,9,-7.412468578857556,-0.5850103804790289
134,10,-6.374115839508576,-0.05954882960826014
134,11,-5.966005485574999,-0.16178071037170036
134,12,-4.704449970883898,-0.0237174275991245
134,13,-4.507530252908419,-0.761710434476715
134,14,-2.596483929382391,-0.10314529254415108
134,15,-3.6777106953532694,0.2258296710441133
135,1,1.506976744555205,-1.3495239759122803
135,2,0.8223578042323245,0.1700408848346774
135,3,0.20858581005767618,0.13017152908952243
135,4,2.774421650039371,0.9613452317273092
135,5,1.1704276719077313,2.0352876483856264
135,6,2.2140286721496145,-1.3833317846918227
135,7,3.34543050657508,1.1948416702574347
135,8,2.914371433390541,0.8213647137255118
135,9,3.7814597169145565,0.07248512426457611
135,10,2.04904106463026,2.005349802347913
135,11,2.3126359285983327,-1.002440937925867
135,12,1.8462147344863742,-1.096800547127889
135,13,2.453560595310703,-1.1264055639685397
135,14,3.146274501500999,0.22252461101509688
135,15,2.458743053798363,0.9539622609835139
136,1,-3.896851605239058,-0.4507657933599994
136,2,-4.296358730212102,-0.5179381523029063
136,3,-3.7880958140083427,0.1329373659779058
136,4,-3.691418919102962,-0.562808652556812
136,5,-4.092113059553349,0.22674020440766424
136,6,-2.159765785801854,0.08055396130022362
136,7,-1.1585125084410555,-0.19107971167720014
136,8,-1.4382356480253664,-0.0578228903374867
136,9,-1.8773336610401714,0.5488309738942293
136,10,-2.115053139853134,-0.10995191750276742
136,11,-2.173373602125601,-2.048933029112315
136,12,-2.197116188504978,-0.10611242268386085
136,13,-2.2273581556084863,-0.556935315134442
136,14,-4.148902977288685,-0.4590497145552066
136,15,-4.580560831164405,-0.7527371450943013
137,1,-0.2333822844441184,0.4122979374265945
137,2,-0.6669353119096247,0.7355903727641928
137,3,-1.7388139953526534,-2.5718148029475234
137,4,-2.427551500101605,0.023797036135442828
137,5,-0.759050351070633,0.2141848943987587
137,6,-3.314297995436372,-1.2671562393713733
137,7,-2.197542728033553,1.302732125887354
137,8,-1.614304083754345,-0.1698074344511142
137,9,-1.9348926621296993,0.26592715554405866
137,10,-2.3054453517520246,0.19915811738558906
137,11,-0.1860795853370485,1.0561120648777271
137,12,-0.6636727791150361,0.7078441027847715
137,13,-1.8107331638197146,-0.7480847528760688
137,14,-2.010144656316767,0.7227516145476932
137,15,-4.475175793593852,-1.0807842250527557
138,1,-4.135825006714715,0.6069284074471548
138,2,-4.156843179920864,-0.6768614999234271
138,3,-3.9493649322838014,0.8800276253664113
138,4,-5.328046306030762,-0.35134711697046694
138,5,-6.481261050671972,-0.8492292449138553
138,6,-5.506405281459148,-0.704295776775581
138,7,-2.898710247048143,1.6017381101362007
138,8,-4.907944753160669,-1.8923169906144102
138,9,-3.7742510837197956,-0.3176422019128799
138,10,-4.138134968645988,0.007300938847948996
138,11,-4.07778690579331,-2.3424982445160754
138,12,-2.927231725327055,-0.08681799133827477
138,13,-2.8492827190533667,0.2481419629352388
138,14,-3.0783667709935028,-0.5566417631480695
138,15,-3.535051461720345,0.6449831836309254
139,1,0.31007212389807304,-0.9444993694321087
139,2,-1.6481479786143698,-2.088993823419315
139,3,1.027696094013982,0.7105581726149994
139,4,0.08334563703703662,-1.1834721533153258
139,5,-1.2318117991693185,-0.19236738929519012
139,6,-0.6814187522302406,-1.8455979685277986
139,7,-0.5154329693602812,-0.8426561194352505
139,8,0.4272872708797313,0.11179821457873984
139,9,1.5368575653865015,-1.23828190824517
139,10,1.4657364949757694,0.37986142914806276
139,11,1.3509038787704288,-0.7748069718312136
139,12,-0.303741709485861,0.295766020720173
139,13,-0.512987403238382,-0.38417859933561793
139,14,-0.8766694917311426,0.027430942551273606
139,15,-0.6885549224091755,-1.2697916224677688
140,1,-0.16268387042580867,-0.3983765481863597
140,2,-2.4537038904054826,-1.2282899500463238
140,3,-0.9836718221891909,-0.19485416323138133
140,4,0.9032220753848188,0.013748393168549922
140,5,0.7951875182726048,-0.07799271580366252
140,6,2.0766942380107523,1.2872187736313654
140,7,0.06940433913604172,0.15008223684195934
140,8,0.6217247570184227,-1.0307420759710402
140,9,0.9278717302547234,-1.2720902783629073
140,10,1.6840975126173396,0.6962948889331665
140,11,0.6255418106330681,0.8436126631274932
140,12,1.6737713100061073,-0.8301893840235652
140,13,0.22224134963776243,-0.19664292320826685
140,14,-0.2587894432551412,0.5836195995021294
140,15,0.7161588148036582,-1.9994846501886065
141,1,-2.477643932083237,1.5127007160271373
141,2,-2.5248233933439286,0.4908861091510812
141,3,-2.5142909400691775,-0.04897700079677765
141,4,-2.379512079710559,-1.6786476355802802
141,5,-2.747288545526705,-0.03146652361374166
141,6,-1.3931544006812215,1.9199731251947887
141,7,-1.9656913287142246,-1.007591542709781
141,8,-0.6729433629626207,0.38321644820633366
141,9,-1.4445102197952573,0.8383140794960475
141,10,-1.7898523678044143,0.15021910701938485
141,11,-2.889627217281274,0.45979320798625517
141,12,-3.3460630728369867,0.674667344600416
141,13,-2.269451186188795,1.1101685296548054
141,14,-3.9605900567071837,-0.22908698513070602
141,15,-0.09394357999050618,-0.5966018678664138
142,1,3.9622872618909573,0.4846397092707497
142,2,2.3212059678070354,-0.8328987781057405
142,3,3.8816844394390277,0.3914365199999982
142,4,5.052491492650407,0.9316734203085528
142,5,4.370357217563385,-0.4482230352709373
142,6,3.7227604716652034,2.9586416635449755
142,7,3.252409200095754,0.5307171723229689
142,8,2.7850517537757673,-0.9674797532365376
142,9,3.480601750183541,1.0904715023544242
142,10,3.6373903970100834,1.8844876040805658
142,11,5.631178184138809,-1.387120168177821
142,12,5.084105142949155,1.0334081923912721
142,13,4.764425948293418,-1.4044102343851597
142,14,4.084252332442177,-0.7647274335304759
142,15,3.1906228263280245,0.36485909902409996
143,1,-4.912490460304521,-1.5956454424846813
143,2,-5.677409359716975,-1.3985111257186464
143,3,-4.645097734819057,-1.4541762404370977
143,4,-4.0302311598315805,0.840181221937589
143,5,-2.814025754863633,1.6411007608336776
143,6,-4.224301825742117,-0.8477156299435916
143,7,-3.136719414001001,0.16952849316264174
143,8,-3.4940988824953623,1.164009618584241
143,9,-2.081057711573148,0.2674332734826698
143,10,0.44952926304649354,0.8623540431388679
143,11,-0.6525868761094014,0.6084876516375562
143,12,-1.8303384121832285,-1.8818183293409283
143,13,-1.8041023382620427,-0.9052578083610342
143,14,-3.4784611085265036,0.8885425185338004
143,15,-3.8079906790761946,1.766284983623426
144,1,3.5223073352508747,-1.1243670216673238
144,2,3.659784567240377,-0.6699273688456212
144,3,3.3753703242075916,1.6111321984683058
144,4,3.1013928564649476,1.4535344944229833
144,5,3.9320922606614386,-0.7154587986345046
144,6,3.1863368082367325,-1.4614682503954899
144,7,1.849816566984011,0.3782471051906966
144,8,0.587309013858289,-3.0766728573264563
144,9,1.1429938718824577,0.9463312694974405
144,10,2.4760052018444094,-1.533017653243275
144,11,1.8838469543886953,-0.515446391989486
144,12,2.070226626942887,-0.3340551169933114
144,13,3.8375803030443763,1.2233147002692066
144,14,6.168119169462112,2.2325217823415233
144,15,5.532228127655576,-0.07483425464393642
145,1,4.921807384616438,1.1923544377700246
145,2,5.996763087254224,-0.6085224546668082
145,3,4.427994548566253,-1.867641366970505
145,4,5.124971617576511,-0.5408366468882561
145,5,5.068404740672432,-1.1911895496219709
145,6,5.160791243688205,-1.7678039636587048
145,7,6.372162199153946,-0.9374648329803434
145,8,7.489753118156601,1.1311663238719873
145,9,8.58978606385092,3.2049592277432497
145,10,7.897123825473346,-0.7501857818756206
145,11,6.822732205123604,-0.5091774552014476
145,12,6.073476312265827,-0.4750610077284526
145,13,7.721277133926741,1.8245018673839573
145,14,6.016127244294313,0.34228323869964955
145,15,4.818292688468301,-0.17953715208086257
146,1,3.3450445166180174,0.8268226262097469
146,2,4.182376561983091,-1.119256752046847
146,3,3.994454936494102,-1.089763969204428
146,4,2.0184056430521484,-1.5363751909456227
146,5,-0.22195022632731565,-1.017521204356602
146,6,-0.006403677821053846,-0.4244243347612864
146,7,-0.6257216149456102,0.5996817651062858
146,8,0.9549871683672316,1.0155790877719213
146,9,0.08462644315585177,-0.6336410559450448
146,10,0.2822583229283899,0.4025817517232832
146,11,0.16397704371215557,-1.0704244983171214
146,12,2.117046907210384,-0.6657757516143669
146,13,0.39873288429054043,-1.3241622225671406
146,14,0.10348516033900945,-0.24197111345195413
146,15,-0.4910238865436106,-0.06730278713302873
147,1,4.669550429234705,-0.7900948386367842
147,2,3.6866892138995064,-0.4292108269188669
147,3,4.178255284862597,-1.1565638248886896
147,4,3.5280926416572087,0.4628217065531356
147,5,2.3672882256641854,-0.966121906414088
147,6,3.5146320896354077,-1.1941331450184969
147,7,4.471719135183453,0.09744569097789663
147,8,5.458514777552653,0.5100816907779319
147,9,6.436373253808202,-0.8965199595403105
147,10,6.397543739557465,0.02842322995927077
147,11,5.839913770676683,-0.27168596323965993
147,12,7.964765722787003,-0.11259328212746851
147,13,7.14694924253257,0.964480077915046
147,14,8.022872758014994,-0.1695290450506964
147,15,7.183063327352532,-0.26338794827933926
148,1,0.2559381399161841,-0.2413245143887228
148,2,-0.9095585609478201,-0.5132506386850179
148,3,-1.364979875593217,-0.8090719358707403
148,4,1.6604106791320465,-0.19600396036864565
148,5,1.0789613830371656,-0.14749666671549513
148,6,1.4753196937483648,1.5882507958359247
148,7,2.1726599325659093,3.0328550545108963
148,8,1.8748480745849856,-0.9779036590292077
148,9,0.1566357364265305,0.48298579164702304
148,10,1.5034368440893968,0.9396104849437795
148,11,2.0760939624627794,0.8420078949810998
148,12,1.0249906675022318,0.23835069800458517
148,13,1.2088263221191133,-0.6813921382941528
148,14,2.261443196549097,-0.30808689335380063
148,15,0.8763687006064704,-0.8303146345339731
149,1,2.245052324874067,1.1390003406368114
149,2,1.9058486850999896,0.6274625054777975
149,3,1.83252181830002,-0.8113761009301537
149,4,0.8524077322823757,-2.707404452484211
149,5,-0.5860187915712388,-1.1501065598060727
149,6,0.49057735602804253,-0.24897525677970028
149,7,0.8417783800723583,0.7618486195810183
149,8,0.6639207476370281,0.20630453480606079
149,9,0.01313068048614452,0.035236803671005366
149,10,-0.9662266798416388,0.01705730582578277
149,11,-2.341171558375808,0.30352984525501264
149,12,-3.2066931480326817,1.3239430651831234
149,13,-1.1318836645003298,-0.6379717863611538
149,14,-0.2291640429306972,0.024729962999706374
149,15,1.8165333375103307,-0.41459807127137915
150,1,5.089992149430478,-1.1602539531191116
150,2,5.226165364378987,-0.2642442748321759
150,3,5.190777202106127,-1.6872690900756457
150,4,6.915255173713254,0.7298258897386782
150,5,9.18504215952208,1.6697826243661704
150,6,9.60225794455759,0.44545899294766594
150,7,7.36905228602906,-2.3108993137630756
150,8,6.324429170836761,0.1322436120703279
150,9,8.224036298571598,-0.04296993289602939
150,10,8.89398436293307,0.48485261983725775
150,11,7.189782752742165,-0.8601242669977218
150,12,8.622034745232504,0.39116339445528214
150,13,9.249244264649215,0.3715659140489919
150,14,7.005504495441629,-1.754610817653911
150,15,7.3410875967974025,0.4523717398179642
151,1,-0.6447091141216246,-0.0992319011594548
